{"learner":{"attributes":{"scikit_learn":"{\"_estimator_type\": \"classifier\"}"},"feature_names":[],"feature_types":[],"gradient_booster":{"model":{"cats":{"enc":[],"feature_segments":[],"sorted_idx":[]},"gbtree_model_param":{"num_parallel_tree":"1","num_trees":"100"},"iteration_indptr":[0,1,2,3,4,5,6,7,8,9,10,11,12,13,14,15,16,17,18,19,20,21,22,23,24,25,26,27,28,29,30,31,32,33,34,35,36,37,38,39,40,41,42,43,44,45,46,47,48,49,50,51,52,53,54,55,56,57,58,59,60,61,62,63,64,65,66,67,68,69,70,71,72,73,74,75,76,77,78,79,80,81,82,83,84,85,86,87,88,89,90,91,92,93,94,95,96,97,98,99,100],"tree_info":[0,0,0,0,0,0,0,0,0,0,0,0,0,0,0,0,0,0,0,0,0,0,0,0,0,0,0,0,0,0,0,0,0,0,0,0,0,0,0,0,0,0,0,0,0,0,0,0,0,0,0,0,0,0,0,0,0,0,0,0,0,0,0,0,0,0,0,0,0,0,0,0,0,0,0,0,0,0,0,0,0,0,0,0,0,0,0,0,0,0,0,0,0,0,0,0,0,0,0,0],"trees":[{"base_weights":[-9.3941246E-8,1.1936735E0,-2.369796E0,1.4186951E0,-1.6882651E0,2.211107E-2,-5.051271E-1,1.4744914E0,-4.2379588E-2,-1.3182685E-2,-4.1885766E-1,3.0927834E-1,7.6746553E-1,2.3683198E-1,-1.0629069E-1],"categories":[],"categories_nodes":[],"categories_segments":[],"categories_sizes":[],"default_left":[0,0,0,0,0,0,0,0,0,0,0,0,0,0,0],"id":0,"left_children":[1,3,5,7,9,-1,-1,11,-1,-1,-1,-1,13,-1,-1],"loss_changes":[3.0615292E2,4.9070618E1,1.4292664E1,6.435959E0,3.5964546E0,0E0,0E0,2.1278687E0,0E0,0E0,0E0,0E0,4.961553E0,0E0,0E0],"parents":[2147483647,0,0,1,1,2,2,3,3,4,4,7,7,12,12],"right_children":[2,4,6,8,10,-1,-1,12,-1,-1,-1,-1,14,-1,-1],"split_conditions":[1.424E-1,9.67E2,1.485E1,4.314E1,1.935E-1,2.211107E-2,-5.051271E-1,2.247E1,-4.2379588E-2,-1.3182685E-2,-4.1885766E-1,3.0927834E-1,1.003E2,2.3683198E-1,-1.0629069E-1],"split_indices":[27,23,20,13,26,0,0,1,0,0,0,0,22,0,0],"split_type":[0,0,0,0,0,0,0,0,0,0,0,0,0,0,0],"sum_hessian":[1.0622857E2,7.097469E1,3.5253876E1,6.6305305E1,4.669388E0,2.1012244E0,3.3152653E1,6.420408E1,2.1012244E0,1.167347E0,3.5020406E0,5.7199997E1,7.0040812E0,5.369796E0,1.6342857E0],"tree_param":{"num_deleted":"0","num_feature":"30","num_nodes":"15","size_leaf_vector":"1"}},{"base_weights":[1.1163378E-2,1.1822076E0,-1.6272651E0,1.3364409E0,-6.416111E-1,3.2713726E-1,-1.808828E0,1.3680874E0,-2.3556639E-2,1.251303E-1,-2.8458926E-1,2.086107E-1,-1.872999E-1,-8.002656E-2,-3.917669E-1,1.3824698E0,6.860518E-2,1.9558915E-1,-2.4253182E-1,9.023659E-2,2.7997792E-1],"categories":[],"categories_nodes":[],"categories_segments":[],"categories_sizes":[],"default_left":[0,0,0,0,0,0,0,0,0,0,0,0,0,0,0,0,0,0,0,0,0],"id":1,"left_children":[1,3,5,7,9,11,13,15,-1,-1,-1,-1,-1,17,-1,19,-1,-1,-1,-1,-1],"loss_changes":[2.0142128E2,1.807727E1,1.611998E1,2.7736511E0,6.2854614E0,5.1080303E0,1.0266754E1,3.460312E-1,0E0,0E0,0E0,0E0,0E0,6.2807293E0,0E0,2.5315094E-1,0E0,0E0,0E0,0E0,0E0],"parents":[2147483647,0,0,1,1,2,2,3,3,4,4,5,5,6,6,7,7,13,13,15,15],"right_children":[2,4,6,8,10,12,14,16,-1,-1,-1,-1,-1,18,-1,20,-1,-1,-1,-1,-1],"split_conditions":[5.074E-2,1.684E1,1.022E2,4.106E0,1.83E1,2.548E1,1.929E1,1.665E-1,-2.3556639E-2,1.251303E-1,-2.8458926E-1,2.086107E-1,-1.872999E-1,8.591E-2,-3.917669E-1,3.338E-3,6.860518E-2,1.9558915E-1,-2.4253182E-1,9.023659E-2,2.7997792E-1],"split_indices":[7,20,22,12,1,21,21,24,0,0,0,0,0,7,0,14,0,0,0,0,0],"split_type":[0,0,0,0,0,0,0,0,0,0,0,0,0,0,0,0,0,0,0,0,0],"sum_hessian":[1.0297686E2,6.0216442E1,4.276042E1,5.5767616E1,4.448826E0,3.5665994E0,3.9193825E1,5.4637833E1,1.1297805E0,1.7727774E0,2.6760485E0,2.38815E0,1.1784495E0,3.2517233E0,3.59421E1,5.3537987E1,1.0998464E0,1.7518882E0,1.4998351E0,1.4769852E0,5.2061005E1],"tree_param":{"num_deleted":"0","num_feature":"30","num_nodes":"21","size_leaf_vector":"1"}},{"base_weights":[1.5762178E-2,1.0714234E0,-1.3561825E0,1.223111E0,-5.425811E-1,-3.832581E-1,-3.300999E-1,1.2557441E0,-2.0972295E-2,1.5532479E-1,-1.1134125E0,9.342246E-1,-2.871446E-1,1.2713605E0,5.1739287E-2,-2.6914093E-1,-5.9474565E-2,2.3253195E-1,-3.4496689E-3,8.145075E-2,2.5776634E-1],"categories":[],"categories_nodes":[],"categories_segments":[],"categories_sizes":[],"default_left":[0,0,0,0,0,0,0,0,0,0,0,0,0,0,0,0,0,0,0,0,0],"id":2,"left_children":[1,3,5,7,9,11,-1,13,-1,-1,15,17,-1,19,-1,-1,-1,-1,-1,-1,-1],"loss_changes":[1.4113956E2,1.4145027E1,1.1503563E1,2.3263168E0,4.9486814E0,1.6796047E1,0E0,4.4190216E-1,0E0,0E0,3.9526415E-1,1.2275414E0,0E0,2.0709991E-1,0E0,0E0,0E0,0E0,0E0,0E0,0E0],"parents":[2147483647,0,0,1,1,2,2,3,3,4,4,5,5,7,7,10,10,11,11,13,13],"right_children":[2,4,6,8,10,12,-1,14,-1,-1,16,18,-1,20,-1,-1,-1,-1,-1,-1,-1],"split_conditions":[5.074E-2,1.684E1,1.146E2,4.106E0,1.573E1,2.548E1,-3.300999E-1,1.178E-1,-2.0972295E-2,1.5532479E-1,1.807E1,1.184E-1,-2.871446E-1,3.338E-3,5.1739287E-2,-2.6914093E-1,-5.9474565E-2,2.3253195E-1,-3.4496689E-3,8.145075E-2,2.5776634E-1],"split_indices":[7,20,22,12,1,21,0,29,0,0,20,4,0,14,0,0,0,0,0,0,0],"split_type":[0,0,0,0,0,0,0,0,0,0,0,0,0,0,0,0,0,0,0,0,0],"sum_hessian":[9.5448006E1,5.406557E1,4.1382435E1,4.9642277E1,4.4232965E0,1.014576E1,3.1236673E1,4.8504726E1,1.1375486E0,1.2270474E0,3.1962488E0,4.5555E0,5.59026E0,4.7485847E1,1.018878E0,1.9827701E0,1.2134788E0,3.4945505E0,1.0609498E0,1.4228531E0,4.6062996E1],"tree_param":{"num_deleted":"0","num_feature":"30","num_nodes":"21","size_leaf_vector":"1"}},{"base_weights":[1.640542E-2,9.8538405E-1,-1.1888853E0,1.1372895E0,-4.752273E-1,-1.7850043E-1,-1.421648E0,1.1729586E0,-2.8010327E-2,1.4416768E-1,-9.765745E-1,1.9505008E-1,-8.519747E-1,-2.9335687E-1,-1.8810764E-2,1.2117733E0,4.418192E-1,-2.4459758E-1,-4.044841E-2,7.97331E-2,-2.5142953E-1,7.115505E-2,2.4702738E-1,-4.5794766E-2,1.5960123E-1],"categories":[],"categories_nodes":[],"categories_segments":[],"categories_sizes":[],"default_left":[0,0,0,0,0,0,0,0,0,0,0,0,0,0,0,0,0,0,0,0,0,0,0,0,0],"id":3,"left_children":[1,3,5,7,9,11,13,15,-1,-1,17,-1,19,-1,-1,21,23,-1,-1,-1,-1,-1,-1,-1,-1],"loss_changes":[1.0301429E2,1.1387127E1,8.992374E0,2.1952171E0,3.8884094E0,7.439325E0,1.7682114E0,6.9828415E-1,0E0,0E0,5.476947E-1,0E0,3.492824E0,0E0,0E0,3.746605E-1,1.0823563E0,0E0,0E0,0E0,0E0,0E0,0E0,0E0,0E0],"parents":[2147483647,0,0,1,1,2,2,3,3,4,4,5,5,6,6,7,7,10,10,12,12,15,15,16,16],"right_children":[2,4,6,8,10,12,14,16,-1,-1,18,-1,20,-1,-1,22,24,-1,-1,-1,-1,-1,-1,-1,-1],"split_conditions":[5.074E-2,1.684E1,1.466E-1,4.276E1,1.573E1,2.288E1,9.96E-2,3.321E1,-2.8010327E-2,1.4416768E-1,9.233E-3,1.9505008E-1,1.354E1,-2.9335687E-1,-1.8810764E-2,1.343E-3,2.715E1,-2.4459758E-1,-4.044841E-2,7.97331E-2,-2.5142953E-1,7.115505E-2,2.4702738E-1,-4.5794766E-2,1.5960123E-1],"split_indices":[7,20,27,13,1,21,16,21,0,0,17,0,0,0,0,19,1,0,0,0,0,0,0,0,0],"split_type":[0,0,0,0,0,0,0,0,0,0,0,0,0,0,0,0,0,0,0,0,0,0,0,0,0],"sum_hessian":[8.620155E1,4.7886356E1,3.8315197E1,4.357578E1,4.3105783E0,7.5048304E0,3.0810366E1,4.2471504E1,1.1042747E0,1.1438615E0,3.166717E0,2.6009574E0,4.9038734E0,2.9695904E1,1.114461E0,3.9706207E1,2.7652967E0,1.9627181E0,1.2039989E0,1.203894E0,3.6999793E0,1.486095E0,3.822011E1,1.0829575E0,1.6823393E0],"tree_param":{"num_deleted":"0","num_feature":"30","num_nodes":"25","size_leaf_vector":"1"}},{"base_weights":[1.7336033E-2,9.153582E-1,-1.0720336E0,1.0684334E0,-4.191813E-1,-2.6612714E-1,-2.659344E-1,1.1070372E0,-2.669108E-2,1.04280844E-1,-1.9282621E-1,8.184106E-1,-2.235956E-1,1.1484525E0,4.0095904E-1,2.044187E-1,8.783682E-3,5.2640546E-2,2.345228E-1,1.5422119E-1,-5.3919952E-2],"categories":[],"categories_nodes":[],"categories_segments":[],"categories_sizes":[],"default_left":[0,0,0,0,0,0,0,0,0,0,0,0,0,0,0,0,0,0,0,0,0],"id":4,"left_children":[1,3,5,7,9,11,-1,13,-1,-1,-1,15,-1,17,19,-1,-1,-1,-1,-1,-1],"loss_changes":[7.700618E1,9.260109E0,7.03286E0,1.9563141E0,3.146039E0,1.0031951E1,0E0,6.470642E-1,0E0,0E0,0E0,7.31024E-1,0E0,4.451065E-1,1.110082E0,0E0,0E0,0E0,0E0,0E0,0E0],"parents":[2147483647,0,0,1,1,2,2,3,3,4,4,5,5,7,7,11,11,13,13,14,14],"right_children":[2,4,6,8,10,12,-1,14,-1,-1,-1,16,-1,18,20,-1,-1,-1,-1,-1,-1],"split_conditions":[5.074E-2,1.684E1,1.146E2,4.106E0,1.83E1,2.548E1,-2.659344E-1,3.337E1,-2.669108E-2,1.04280844E-1,-1.9282621E-1,3.109E-1,-2.235956E-1,3.338E-3,1.786E1,2.044187E-1,8.783682E-3,5.2640546E-2,2.345228E-1,1.5422119E-1,-5.3919952E-2],"split_indices":[7,20,22,12,1,21,0,21,0,0,0,28,0,14,13,0,0,0,0,0,0],"split_type":[0,0,0,0,0,0,0,0,0,0,0,0,0,0,0,0,0,0,0,0,0],"sum_hessian":[7.671296E1,4.2137024E1,3.457593E1,3.7980015E1,4.157008E0,8.868318E0,2.5707615E1,3.687455E1,1.1054666E0,1.5407956E0,2.6162126E0,3.9185956E0,4.949722E0,3.4239685E1,2.6348631E0,2.8495107E0,1.0690849E0,1.2256818E0,3.3014004E1,1.6011093E0,1.0337539E0],"tree_param":{"num_deleted":"0","num_feature":"30","num_nodes":"21","size_leaf_vector":"1"}},{"base_weights":[1.7934019E-2,9.8839706E-1,-8.643306E-1,1.060742E0,-5.7622302E-2,5.82581E-1,-1.0392882E0,2.219656E-1,-4.1981217E-2,1.7637664E-1,-2.6282704E-2,2.1333514E-1,-1.1711427E0,1.632549E-1,-1.4033268E-1,1.755598E-2,-2.4609795E-1],"categories":[],"categories_nodes":[],"categories_segments":[],"categories_sizes":[],"default_left":[0,0,0,0,0,0,0,0,0,0,0,0,0,0,0,0,0],"id":5,"left_children":[1,3,5,7,-1,9,11,-1,-1,-1,-1,13,15,-1,-1,-1,-1],"loss_changes":[5.959085E1,3.3655128E0,9.836988E0,2.202057E0,0E0,1.093489E0,5.682453E0,0E0,0E0,0E0,0E0,2.7676373E0,2.3429718E0,0E0,0E0,0E0,0E0],"parents":[2147483647,0,0,1,1,2,2,3,3,5,5,6,6,11,11,12,12],"right_children":[2,4,6,8,-1,10,12,-1,-1,-1,-1,14,16,-1,-1,-1,-1],"split_conditions":[1.017E2,5.669E-2,2.085E-1,4.009E1,-5.7622302E-2,1.931E1,1.962E1,2.219656E-1,-4.1981217E-2,1.7637664E-1,-2.6282704E-2,7.34E-2,1.028E-1,1.632549E-1,-1.4033268E-1,1.755598E-2,-2.4609795E-1],"split_indices":[22,7,26,13,0,1,21,0,0,0,0,7,24,0,0,0,0],"split_type":[0,0,0,0,0,0,0,0,0,0,0,0,0,0,0,0,0],"sum_hessian":[6.760101E1,3.213416E1,3.546685E1,3.0570627E1,1.563533E0,3.5746229E0,3.1892227E1,2.9555445E1,1.015182E0,2.353084E0,1.2215388E0,2.978489E0,2.891374E1,1.8604432E0,1.1180457E0,1.2800972E0,2.7633642E1],"tree_param":{"num_deleted":"0","num_feature":"30","num_nodes":"17","size_leaf_vector":"1"}},{"base_weights":[1.9446637E-2,7.165479E-1,-1.0465083E0,8.9266264E-1,-1.8597451E-1,3.1503014E-2,-1.1465261E0,1.0512818E0,1.05966695E-1,-3.0033683E-2,-2.3817495E-1,2.2082067E-1,-2.8933967E-2,1.7406447E-1,-6.7212826E-1,-2.0606053E-1,3.5135537E-2],"categories":[],"categories_nodes":[],"categories_segments":[],"categories_sizes":[],"default_left":[0,0,0,0,0,0,0,0,0,0,0,0,0,0,0,0,0],"id":6,"left_children":[1,3,5,7,-1,-1,9,11,13,-1,-1,-1,-1,-1,15,-1,-1],"loss_changes":[4.566766E1,1.1599415E1,3.107767E0,4.1390495E0,0E0,0E0,8.1819725E-1,1.9433632E0,4.645601E0,0E0,0E0,0E0,0E0,0E0,1.3797444E0,0E0,0E0],"parents":[2147483647,0,0,1,1,2,2,3,3,6,6,7,7,8,8,14,14],"right_children":[2,4,6,8,-1,-1,10,12,14,-1,-1,-1,-1,-1,16,-1,-1],"split_conditions":[8.765E2,1.583E-1,2.177E-1,3.012E1,-1.8597451E-1,3.1503014E-2,2.451E-1,5.506E-1,1.935E-1,-3.0033683E-2,-2.3817495E-1,2.2082067E-1,-2.8933967E-2,1.7406447E-1,3.829E-2,-2.0606053E-1,3.5135537E-2],"split_indices":[23,27,26,21,0,0,10,10,26,0,0,0,0,0,16,0,0],"split_type":[0,0,0,0,0,0,0,0,0,0,0,0,0,0,0,0,0],"sum_hessian":[5.944824E1,3.6140965E1,2.3307274E1,3.3062176E1,3.0787876E0,1.7435374E0,2.1563738E1,2.7234613E1,5.8275614E0,1.1058259E0,2.045791E1,2.6156178E1,1.0784374E0,2.8799424E0,2.9476192E0,1.9208543E0,1.0267649E0],"tree_param":{"num_deleted":"0","num_feature":"30","num_nodes":"17","size_leaf_vector":"1"}},{"base_weights":[1.5450018E-2,7.614033E-1,-8.7000644E-1,9.1696733E-1,-2.7576625E-1,1.8071069E-1,-1.0183473E0,9.701284E-1,-3.5883404E-2,7.5414605E-2,-1.8072973E-1,1.5468286E-1,-1.0415163E-1,1.5427748E-3,-2.2289653E-1,1.0262712E0,2.3391911E-1,2.781306E-2,2.12813E-1,1.1760324E-1,-4.842075E-2],"categories":[],"categories_nodes":[],"categories_segments":[],"categories_sizes":[],"default_left":[0,0,0,0,0,0,0,0,0,0,0,0,0,0,0,0,0,0,0,0,0],"id":7,"left_children":[1,3,5,7,9,11,13,15,-1,-1,-1,-1,-1,-1,-1,17,19,-1,-1,-1,-1],"loss_changes":[3.563822E1,4.9760704E0,4.030613E0,1.6712132E0,2.2209244E0,2.0252554E0,2.156662E0,7.789974E-1,0E0,0E0,0E0,0E0,0E0,0E0,0E0,6.102524E-1,6.551449E-1,0E0,0E0,0E0,0E0],"parents":[2147483647,0,0,1,1,2,2,3,3,4,4,5,5,6,6,7,7,15,15,16,16],"right_children":[2,4,6,8,10,12,14,16,-1,-1,-1,-1,-1,-1,-1,18,20,-1,-1,-1,-1],"split_conditions":[5.074E-2,1.684E1,7.259E2,4.276E1,1.954E1,2.548E1,1.929E1,3.321E1,-3.5883404E-2,7.5414605E-2,-1.8072973E-1,1.5468286E-1,-1.0415163E-1,1.5427748E-3,-2.2289653E-1,1.345E-3,2.031E-2,2.781306E-2,2.12813E-1,1.1760324E-1,-4.842075E-2],"split_indices":[7,20,23,13,1,21,21,21,0,0,0,0,0,0,0,19,7,0,0,0,0],"split_type":[0,0,0,0,0,0,0,0,0,0,0,0,0,0,0,0,0,0,0,0,0],"sum_hessian":[5.1952778E1,2.8273691E1,2.3679085E1,2.468683E1,3.5868595E0,2.9024482E0,2.0776636E1,2.3655012E1,1.0318184E0,1.9543164E0,1.6325431E0,1.5175965E0,1.3848516E0,1.8586706E0,1.8917967E1,2.1612839E1,2.042175E0,1.0742579E0,2.053858E1,1.0361499E0,1.0060253E0],"tree_param":{"num_deleted":"0","num_feature":"30","num_nodes":"21","size_leaf_vector":"1"}},{"base_weights":[1.5163866E-2,6.4096236E-1,-9.2523366E-1,8.661695E-1,-4.656091E-1,9.475361E-3,-2.0958029E-1,1.0082523E0,2.1832533E-1,6.971735E-2,-8.42695E-1,1.4860547E-1,-1.4648917E-1,3.1027762E-2,2.097864E-1,1.6138943E-1,-4.9202293E-1,-1.9725524E-1,-4.4006787E-2,-1.4851007E-1,-1.3910992E-3],"categories":[],"categories_nodes":[],"categories_segments":[],"categories_sizes":[],"default_left":[0,0,0,0,0,0,0,0,0,0,0,0,0,0,0,0,0,0,0,0,0],"id":8,"left_children":[1,3,5,7,9,11,-1,13,15,-1,17,-1,-1,-1,-1,-1,19,-1,-1,-1,-1],"loss_changes":[2.8007023E1,7.5208397E0,2.1909847E0,1.9964333E0,1.976253E0,2.284605E0,0E0,5.1306725E-1,2.7417748E0,0E0,1.4399552E-1,0E0,0E0,0E0,0E0,0E0,3.7913036E-1,0E0,0E0,0E0,0E0],"parents":[2147483647,0,0,1,1,2,2,3,3,4,4,5,5,7,7,8,8,10,10,16,16],"right_children":[2,4,6,8,10,12,-1,14,16,-1,18,-1,-1,-1,-1,-1,20,-1,-1,-1,-1],"split_conditions":[1.424E-1,6.988E2,1.534E1,2.987E1,1.83E1,1.074E-1,-2.0958029E-1,1.988E-1,1.438E1,6.971735E-2,1.641E-2,1.4860547E-1,-1.4648917E-1,3.1027762E-2,2.097864E-1,1.6138943E-1,2.183E0,-1.9725524E-1,-4.4006787E-2,-1.4851007E-1,-1.3910992E-3],"split_indices":[27,3,20,21,1,4,0,28,20,0,15,0,0,0,0,0,12,0,0,0,0],"split_type":[0,0,0,0,0,0,0,0,0,0,0,0,0,0,0,0,0,0,0,0,0],"sum_hessian":[4.558286E1,2.7560688E1,1.802217E1,2.308062E1,4.4800696E0,2.1978264E0,1.5824343E1,1.8472895E1,4.607725E0,1.4420351E0,3.0380347E0,1.1043968E0,1.0934296E0,1.0598553E0,1.7413038E1,2.4453917E0,2.1623333E0,1.9942136E0,1.0438211E0,1.0758566E0,1.0864767E0],"tree_param":{"num_deleted":"0","num_feature":"30","num_nodes":"21","size_leaf_vector":"1"}},{"base_weights":[1.2483182E-2,6.0398E-1,-8.827376E-1,7.667903E-1,-1.501232E-1,-1.2789562E-3,-2.1146432E-1,9.7770244E-1,1.3005653E-1,1.2980577E-1,-1.4733809E-1,2.8168535E-2,2.045747E-1,1.415628E-1,-4.9992627E-1,-1.8978286E-1,-2.7617344E-3],"categories":[],"categories_nodes":[],"categories_segments":[],"categories_sizes":[],"default_left":[0,0,0,0,0,0,0,0,0,0,0,0,0,0,0,0,0],"id":9,"left_children":[1,3,5,7,-1,9,-1,11,13,-1,-1,-1,-1,-1,15,-1,-1],"loss_changes":[2.2212683E1,6.143527E0,2.5678349E0,2.965994E0,0E0,2.27692E0,0E0,5.0416565E-1,2.8596237E0,0E0,0E0,0E0,0E0,0E0,8.3362293E-1,0E0,0E0],"parents":[2147483647,0,0,1,1,2,2,3,3,5,5,7,7,8,8,14,14],"right_children":[2,4,6,8,-1,10,-1,12,14,-1,-1,-1,-1,-1,16,-1,-1],"split_conditions":[8.765E2,1.583E-1,7.16E-2,2.135E1,-1.501232E-1,1.954E1,-2.1146432E-1,1.988E-1,1.444E1,1.2980577E-1,-1.4733809E-1,2.8168535E-2,2.045747E-1,1.415628E-1,6.797E-2,-1.8978286E-1,-2.7617344E-3],"split_indices":[23,27,6,1,0,1,0,28,20,0,0,0,0,0,5,0,0],"split_type":[0,0,0,0,0,0,0,0,0,0,0,0,0,0,0,0,0],"sum_hessian":[3.994183E1,2.4246702E1,1.5695129E1,2.2032524E1,2.2141778E0,2.7612333E0,1.2933896E1,1.6148115E1,5.88441E0,1.5277448E0,1.2334886E0,1.0378789E0,1.5110235E1,3.0049884E0,2.8794212E0,1.0019623E0,1.8774588E0],"tree_param":{"num_deleted":"0","num_feature":"30","num_nodes":"17","size_leaf_vector":"1"}},{"base_weights":[6.980574E-3,7.3765993E-1,-6.4910173E-1,8.956447E-1,-2.6797143E-1,-1.1715622E-1,-2.0268832E-1,2.5573505E-2,9.412543E-1,6.372066E-2,-1.479816E-1,5.3904384E-1,-7.1768314E-1,1.9854441E-1,6.0967058E-2,1.5887572E-1,-4.3026146E-2,-1.7598194E-1,-1.3315499E-2],"categories":[],"categories_nodes":[],"categories_segments":[],"categories_sizes":[],"default_left":[0,0,0,0,0,0,0,0,0,0,0,0,0,0,0,0,0,0,0],"id":10,"left_children":[1,3,5,7,9,11,-1,-1,13,-1,-1,15,17,-1,-1,-1,-1,-1,-1],"loss_changes":[1.7737434E1,3.0203934E0,3.660736E0,4.1733742E-1,1.1065667E0,3.9562569E0,0E0,0E0,1.6697788E-1,0E0,0E0,1.1143525E0,4.862914E-1,0E0,0E0,0E0,0E0,0E0,0E0],"parents":[2147483647,0,0,1,1,2,2,3,3,4,4,5,5,8,8,11,11,12,12],"right_children":[2,4,6,8,10,12,-1,-1,14,-1,-1,16,18,-1,-1,-1,-1,-1,-1],"split_conditions":[1.112E-1,1.499E1,1.162E2,1.988E-1,2.021E1,2.737E1,-2.0268832E-1,2.5573505E-2,3.337E1,6.372066E-2,-1.479816E-1,1.561E-1,1.906E-2,1.9854441E-1,6.0967058E-2,1.5887572E-1,-4.3026146E-2,-1.7598194E-1,-1.3315499E-2],"split_indices":[27,0,22,28,1,21,0,0,21,0,0,27,18,0,0,0,0,0,0],"split_type":[0,0,0,0,0,0,0,0,0,0,0,0,0,0,0,0,0,0,0],"sum_hessian":[3.5001522E1,1.6500528E1,1.8500992E1,1.4354765E1,2.145764E0,8.057863E0,1.044313E1,1.0182015E0,1.3336563E1,1.101545E0,1.0442191E0,3.8993728E0,4.15849E0,1.1820753E1,1.51581E0,2.8732808E0,1.0260919E0,3.0477245E0,1.1107658E0],"tree_param":{"num_deleted":"0","num_feature":"30","num_nodes":"19","size_leaf_vector":"1"}},{"base_weights":[4.764308E-3,5.531221E-1,-7.9280424E-1,8.2179296E-1,-1.02918684E-1,-8.67235E-2,-1.9511317E-1,9.153135E-1,-3.590607E-2,4.866828E-1,-6.4762527E-1,1.1131316E-1,-1.3278292E-1,1.9442931E-1,5.5241693E-2,1.5130958E-1,-1.014414E-2,-1.7504868E-1,-6.6578537E-3],"categories":[],"categories_nodes":[],"categories_segments":[],"categories_sizes":[],"default_left":[0,0,0,0,0,0,0,0,0,0,0,0,0,0,0,0,0,0,0],"id":11,"left_children":[1,3,5,7,9,11,-1,13,-1,15,17,-1,-1,-1,-1,-1,-1,-1,-1],"loss_changes":[1.4360761E1,3.513277E0,1.6420555E0,1.4671087E0,2.415757E0,1.7985768E0,0E0,1.9959354E-1,0E0,5.766809E-1,5.0625706E-1,0E0,0E0,0E0,0E0,0E0,0E0,0E0,0E0],"parents":[2147483647,0,0,1,1,2,2,3,3,4,4,5,5,7,7,9,9,10,10],"right_children":[2,4,6,8,10,12,-1,14,-1,16,18,-1,-1,-1,-1,-1,-1,-1,-1],"split_conditions":[5.596E-2,1.563E1,2.384E1,5.158E-1,1.963E1,1.583E-1,-1.9511317E-1,3.321E1,-3.590607E-2,2.177E-1,1.13E-2,1.1131316E-1,-1.3278292E-1,1.9442931E-1,5.5241693E-2,1.5130958E-1,-1.014414E-2,-1.7504868E-1,-6.6578537E-3],"split_indices":[7,20,21,10,1,27,0,21,0,26,17,0,0,0,0,0,0,0,0],"split_type":[0,0,0,0,0,0,0,0,0,0,0,0,0,0,0,0,0,0,0],"sum_hessian":[3.083297E1,1.845261E1,1.238036E1,1.2912039E1,5.5405717E0,2.8488057E0,9.531554E0,1.1887663E1,1.0243757E0,2.711794E0,2.8287778E0,1.3641601E0,1.4846456E0,1.043832E1,1.449343E0,1.5337932E0,1.1780006E0,1.7541486E0,1.0746291E0],"tree_param":{"num_deleted":"0","num_feature":"30","num_nodes":"19","size_leaf_vector":"1"}},{"base_weights":[3.5583535E-3,5.0468886E-1,-7.714483E-1,7.196585E-1,-3.3967125E-1,4.5782872E-4,-9.013927E-1,2.871886E-1,1.9088712E-1,2.981886E-2,-1.5222515E-1,-5.3997155E-2,-1.8933158E-1,1.4853065E-1,-1.6552708E-1,-1.7028807E-1,8.055727E-2],"categories":[],"categories_nodes":[],"categories_segments":[],"categories_sizes":[],"default_left":[0,0,0,0,0,0,0,0,0,0,0,0,0,0,0,0,0],"id":12,"left_children":[1,3,5,7,9,-1,11,13,-1,-1,-1,-1,-1,-1,15,-1,-1],"loss_changes":[1.1347285E1,3.4643564E0,1.1558056E0,1.194097E0,9.949633E-1,0E0,2.5295734E-2,1.4669884E0,0E0,0E0,0E0,0E0,0E0,0E0,1.9360327E0,0E0,0E0],"parents":[2147483647,0,0,1,1,2,2,3,3,4,4,6,6,7,7,14,14],"right_children":[2,4,6,8,10,-1,12,14,-1,-1,-1,-1,-1,-1,16,-1,-1],"split_conditions":[1.418E-1,6.988E2,1.534E1,1.743E-2,1.954E1,4.5782872E-4,2.522E1,1.806E1,1.9088712E-1,2.981886E-2,-1.5222515E-1,-5.3997155E-2,-1.8933158E-1,1.4853065E-1,1.203E-2,-1.7028807E-1,8.055727E-2],"split_indices":[27,3,20,18,1,0,13,1,0,0,0,0,0,0,15,0,0],"split_type":[0,0,0,0,0,0,0,0,0,0,0,0,0,0,0,0,0],"sum_hessian":[2.7214529E1,1.6739391E1,1.0475138E1,1.3460186E1,3.2792048E0,1.6475275E0,8.827611E0,5.5183597E0,7.941827E0,1.8175777E0,1.461627E0,1.0563964E0,7.771214E0,2.4315772E0,3.0867825E0,1.1729403E0,1.9138422E0],"tree_param":{"num_deleted":"0","num_feature":"30","num_nodes":"17","size_leaf_vector":"1"}},{"base_weights":[-3.3903585E-4,5.249458E-1,-6.6403425E-1,8.3718824E-1,8.466743E-2,3.0939108E-2,-8.61768E-1,2.7506975E-2,1.8286024E-1,5.550596E-1,-4.2368686E-1,1.114072E-1,-1.15035735E-1,-3.117505E-2,-1.8742858E-1,1.5359645E-1,4.341991E-3,-1.6599911E-1,3.0743396E-2],"categories":[],"categories_nodes":[],"categories_segments":[],"categories_sizes":[],"default_left":[0,0,0,0,0,0,0,0,0,0,0,0,0,0,0,0,0,0,0],"id":13,"left_children":[1,3,5,7,9,11,13,-1,-1,15,17,-1,-1,-1,-1,-1,-1,-1,-1],"loss_changes":[9.174927E0,1.9487066E0,1.6243796E0,3.3190918E-1,1.9588199E0,1.449414E0,3.3735466E-1,0E0,0E0,4.576466E-1,1.073364E0,0E0,0E0,0E0,0E0,0E0,0E0,0E0,0E0],"parents":[2147483647,0,0,1,1,2,2,3,3,4,4,5,5,6,6,9,9,10,10],"right_children":[2,4,6,8,10,12,14,-1,-1,16,18,-1,-1,-1,-1,-1,-1,-1,-1],"split_conditions":[5.074E-2,6.536E2,2.384E1,2.157E-1,1.963E1,1.583E-1,9.943E1,2.7506975E-2,1.8286024E-1,2.177E-1,7.175E-2,1.114072E-1,-1.15035735E-1,-3.117505E-2,-1.8742858E-1,1.5359645E-1,4.341991E-3,-1.6599911E-1,3.0743396E-2],"split_indices":[7,23,21,28,1,27,22,0,0,26,5,0,0,0,0,0,0,0,0],"split_type":[0,0,0,0,0,0,0,0,0,0,0,0,0,0,0,0,0,0,0],"sum_hessian":[2.4317297E1,1.3690745E1,1.0626552E1,7.4826226E0,6.2081223E0,2.5406122E0,8.085939E0,1.0191677E0,6.463455E0,3.176737E0,3.0313852E0,1.4034371E0,1.1371751E0,1.0761058E0,7.0098333E0,1.9559605E0,1.2207767E0,1.52254E0,1.5088452E0],"tree_param":{"num_deleted":"0","num_feature":"30","num_nodes":"19","size_leaf_vector":"1"}},{"base_weights":[3.1427556E-4,7.078719E-1,-4.481557E-1,1.8238394E-1,-3.641392E-2,-1.9194573E-2,-1.8459208E-1,5.5645645E-1,-6.051063E-1,1.5599163E-1,-3.093052E-2,2.1374195E-3,-1.5730922E-1],"categories":[],"categories_nodes":[],"categories_segments":[],"categories_sizes":[],"default_left":[0,0,0,0,0,0,0,0,0,0,0,0,0],"id":14,"left_children":[1,3,5,-1,-1,7,-1,9,11,-1,-1,-1,-1],"loss_changes":[7.5409594E0,1.8401351E0,2.9448686E0,0E0,0E0,3.258598E0,0E0,8.9792705E-1,5.4161465E-1,0E0,0E0,0E0,0E0],"parents":[2147483647,0,0,1,1,2,2,5,5,7,7,8,8],"right_children":[2,4,6,-1,-1,8,-1,10,12,-1,-1,-1,-1],"split_conditions":[2.085E-1,4.276E1,9.67E2,1.8238394E-1,-3.641392E-2,2.737E1,-1.8459208E-1,7.041E-2,8.853E-2,1.5599163E-1,-3.093052E-2,2.1374195E-3,-1.5730922E-1],"split_indices":[26,13,23,0,0,21,0,7,4,0,0,0,0],"split_type":[0,0,0,0,0,0,0,0,0,0,0,0,0],"sum_hessian":[2.1764906E1,8.219099E0,1.3545807E1,6.6660056E0,1.5530932E0,7.6630597E0,5.882747E0,3.8907344E0,3.7723255E0,2.8866427E0,1.0040917E0,1.0727129E0,2.6996126E0],"tree_param":{"num_deleted":"0","num_feature":"30","num_nodes":"13","size_leaf_vector":"1"}},{"base_weights":[-1.9006096E-3,3.5479203E-1,-7.989724E-1,5.749037E-1,-2.9589808E-1,-1.7391047E-1,-4.234074E-2,7.964806E-1,-4.066209E-2,6.0976226E-2,-1.2747744E-1,1.798154E-1,4.8571997E-3,-1.0396501E-1,1.04265355E-1],"categories":[],"categories_nodes":[],"categories_segments":[],"categories_sizes":[],"default_left":[0,0,0,0,0,0,0,0,0,0,0,0,0,0,0],"id":15,"left_children":[1,3,5,7,9,-1,-1,11,13,-1,-1,-1,-1,-1,-1],"loss_changes":[6.0598936E0,2.2796137E0,8.901167E-2,1.5798576E0,1.0935708E0,0E0,0E0,6.4294577E-1,1.3358511E0,0E0,0E0,0E0,0E0,0E0,0E0],"parents":[2147483647,0,0,1,1,2,2,3,3,4,4,7,7,8,8],"right_children":[2,4,6,8,10,-1,-1,12,14,-1,-1,-1,-1,-1,-1],"split_conditions":[1.515E-1,3.444E1,6.43E-2,3.012E1,1.048E-1,-1.7391047E-1,-4.234074E-2,9.864E1,2.35E1,6.0976226E-2,-1.2747744E-1,1.798154E-1,4.8571997E-3,-1.0396501E-1,1.04265355E-1],"split_indices":[27,13,16,21,24,0,0,2,1,0,0,0,0,0,0],"split_type":[0,0,0,0,0,0,0,0,0,0,0,0,0,0,0],"sum_hessian":[1.9317371E1,1.3728636E1,5.5887356E0,1.0345493E1,3.3831422E0,4.5600247E0,1.028711E0,7.3911138E0,2.9543796E0,1.2649415E0,2.1182008E0,6.3792334E0,1.0118803E0,1.6352007E0,1.3191788E0],"tree_param":{"num_deleted":"0","num_feature":"30","num_nodes":"15","size_leaf_vector":"1"}},{"base_weights":[-5.474596E-3,6.383114E-1,-4.0586114E-1,1.7268232E-1,-2.9629046E-2,2.2935317E-1,-6.680286E-1,1.11535005E-1,-6.777946E-2,2.4177678E-2,-1.6298294E-1],"categories":[],"categories_nodes":[],"categories_segments":[],"categories_sizes":[],"default_left":[0,0,0,0,0,0,0,0,0,0,0],"id":16,"left_children":[1,3,5,-1,-1,7,9,-1,-1,-1,-1],"loss_changes":[5.0176287E0,1.4498982E0,2.1505144E0,0E0,0E0,9.815905E-1,1.1119137E0,0E0,0E0,0E0,0E0],"parents":[2147483647,0,0,1,1,2,2,5,5,6,6],"right_children":[2,4,6,-1,-1,8,10,-1,-1,-1,-1],"split_conditions":[2.085E-1,4.276E1,7.391E2,1.7268232E-1,-2.9629046E-2,2.987E1,1.658E1,1.11535005E-1,-6.777946E-2,2.4177678E-2,-1.6298294E-1],"split_indices":[26,13,23,0,0,21,1,0,0,0,0],"split_type":[0,0,0,0,0,0,0,0,0,0,0],"sum_hessian":[1.7460983E1,6.4675303E0,1.0993453E1,4.952245E0,1.5152853E0,3.248272E0,7.745181E0,2.070561E0,1.177711E0,1.2434853E0,6.5016956E0],"tree_param":{"num_deleted":"0","num_feature":"30","num_nodes":"11","size_leaf_vector":"1"}},{"base_weights":[-1.133925E-3,3.189885E-1,-7.414393E-1,6.242568E-1,-9.967488E-2,-1.6209906E-1,-4.579072E-2,7.5947684E-1,-1.2818329E-2,1.07753016E-1,-4.8861215E-1,2.7009243E-2,1.7067538E-1,-1.3080613E-1,-6.776064E-3],"categories":[],"categories_nodes":[],"categories_segments":[],"categories_sizes":[],"default_left":[0,0,0,0,0,0,0,0,0,0,0,0,0,0,0],"id":17,"left_children":[1,3,5,7,9,-1,-1,11,-1,-1,13,-1,-1,-1,-1],"loss_changes":[4.2314324E0,1.6556163E0,5.1743984E-3,7.3260117E-1,1.7828208E0,0E0,0E0,2.4941373E-1,0E0,0E0,3.0334413E-1,0E0,0E0,0E0,0E0],"parents":[2147483647,0,0,1,1,2,2,3,3,4,4,7,7,10,10],"right_children":[2,4,6,8,10,-1,-1,12,-1,-1,14,-1,-1,-1,-1],"split_conditions":[1.515E-1,1.998E1,5.915E-2,9.67E2,6.536E2,-1.6209906E-1,-4.579072E-2,9.708E-2,-1.2818329E-2,1.07753016E-1,2.881E-3,2.7009243E-2,1.7067538E-1,-1.3080613E-1,-6.776064E-3],"split_indices":[27,1,16,23,23,0,0,25,0,0,19,0,0,0,0],"split_type":[0,0,0,0,0,0,0,0,0,0,0,0,0,0,0],"sum_hessian":[1.58570385E1,1.1467417E1,4.3896217E0,6.347829E0,5.119588E0,3.355922E0,1.0336999E0,5.2192254E0,1.1286035E0,1.7923025E0,3.3272853E0,1.0009766E0,4.218249E0,2.1183958E0,1.2088895E0],"tree_param":{"num_deleted":"0","num_feature":"30","num_nodes":"15","size_leaf_vector":"1"}},{"base_weights":[-3.3144641E-3,3.6330235E-1,-5.98057E-1,-1.5045589E-1,5.9752655E-1,5.049952E-3,-1.602484E-1,1.1291249E-1,-1.3171333E-1,7.5645196E-1,-3.48338E-2,1.702898E-1,4.1406434E-2],"categories":[],"categories_nodes":[],"categories_segments":[],"categories_sizes":[],"default_left":[0,0,0,0,0,0,0,0,0,0,0,0,0],"id":18,"left_children":[1,3,5,7,9,-1,-1,-1,-1,11,-1,-1,-1],"loss_changes":[3.6049001E0,1.3213727E0,8.184593E-1,1.8262908E0,1.0184863E0,0E0,0E0,0E0,0E0,1.4641714E-1,0E0,0E0,0E0],"parents":[2147483647,0,0,1,1,2,2,3,3,4,4,9,9],"right_children":[2,4,6,8,10,-1,-1,-1,-1,12,-1,-1,-1],"split_conditions":[5.596E-2,1.203E-2,2.384E1,1.246E-2,3.215E-1,5.049952E-3,-1.602484E-1,1.1291249E-1,-1.3171333E-1,4.335E-2,-3.48338E-2,1.702898E-1,4.1406434E-2],"split_indices":[7,15,21,16,28,0,0,0,0,7,0,0,0],"split_type":[0,0,0,0,0,0,0,0,0,0,0,0,0],"sum_hessian":[1.4536526E1,9.233727E0,5.3027987E0,3.0034535E0,6.230274E0,1.5189316E0,3.7838671E0,1.2015374E0,1.8019161E0,5.182688E0,1.0475858E0,3.9499938E0,1.2326944E0],"tree_param":{"num_deleted":"0","num_feature":"30","num_nodes":"13","size_leaf_vector":"1"}},{"base_weights":[-1.8908181E-3,5.597183E-1,-3.4677663E-1,1.599772E-1,-2.607264E-2,6.1971966E-2,-1.483834E-1,1.1161619E-1,-2.9111212E-1,3.17483E-2,-1.06239475E-1],"categories":[],"categories_nodes":[],"categories_segments":[],"categories_sizes":[],"default_left":[0,0,0,0,0,0,0,0,0,0,0],"id":19,"left_children":[1,3,5,-1,-1,7,-1,-1,9,-1,-1],"loss_changes":[2.9802666E0,1.07471E0,1.5850813E0,0E0,0E0,1.1446137E0,0E0,0E0,5.0907874E-1,0E0,0E0],"parents":[2147483647,0,0,1,1,2,2,5,5,8,8],"right_children":[2,4,6,-1,-1,8,-1,-1,10,-1,-1],"split_conditions":[2.085E-1,4.276E1,8.693E2,1.599772E-1,-2.607264E-2,2.558E1,-1.483834E-1,1.1161619E-1,1.351E-1,3.17483E-2,-1.06239475E-1],"split_indices":[26,13,23,0,0,21,0,0,24,0,0],"split_type":[0,0,0,0,0,0,0,0,0,0,0],"sum_hessian":[1.3384608E1,4.8553267E0,8.529282E0,3.483762E0,1.3715647E0,4.6068945E0,3.9223874E0,1.6740885E0,2.9328058E0,1.138459E0,1.7943468E0],"tree_param":{"num_deleted":"0","num_feature":"30","num_nodes":"11","size_leaf_vector":"1"}},{"base_weights":[9.0271607E-4,2.4873833E-1,-1.4229037E-1,5.464568E-1,-1.5061589E-1,6.858619E-1,-1.3302627E-2,8.9554384E-2,-4.6719813E-1,1.5625362E-1,2.8920937E-2,-1.2406266E-2,-1.21042244E-1],"categories":[],"categories_nodes":[],"categories_segments":[],"categories_sizes":[],"default_left":[0,0,0,0,0,0,0,0,0,0,0,0,0],"id":20,"left_children":[1,3,-1,5,7,9,-1,-1,11,-1,-1,-1,-1],"loss_changes":[2.5168333E0,1.3394539E0,0E0,5.817138E-1,1.2132045E0,1.5553212E-1,0E0,0E0,1.836428E-1,0E0,0E0,0E0,0E0],"parents":[2147483647,0,0,1,1,3,3,4,4,5,5,8,8],"right_children":[2,4,-1,6,8,10,-1,-1,12,-1,-1,-1,-1],"split_conditions":[1.583E-1,2.02E1,-1.4229037E-1,9.67E2,6.536E2,3.897E-1,-1.3302627E-2,8.9554384E-2,5.442E-3,1.5625362E-1,2.8920937E-2,-1.2406266E-2,-1.21042244E-1],"split_indices":[27,1,0,23,23,10,0,0,14,0,0,0,0],"split_type":[0,0,0,0,0,0,0,0,0,0,0,0,0],"sum_hessian":[1.2253527E1,9.573595E0,2.6799319E0,5.273701E0,4.299894E0,4.1996717E0,1.0740291E0,1.3443941E0,2.9554994E0,3.1933544E0,1.0063176E0,1.1192278E0,1.8362718E0],"tree_param":{"num_deleted":"0","num_feature":"30","num_nodes":"13","size_leaf_vector":"1"}},{"base_weights":[3.3845255E-4,3.0159545E-1,-5.1868767E-1,-2.0137002E-1,5.4353064E-1,5.332242E-3,-1.4289112E-1,5.6840714E-2,-1.09394215E-1,7.0610744E-1,-1.4687826E-2,1.6172825E-1,3.3668686E-2],"categories":[],"categories_nodes":[],"categories_segments":[],"categories_sizes":[],"default_left":[0,0,0,0,0,0,0,0,0,0,0,0,0],"id":21,"left_children":[1,3,5,7,9,-1,-1,-1,-1,11,-1,-1,-1],"loss_changes":[2.0825925E0,1.134876E0,5.413103E-1,7.372016E-1,6.496992E-1,0E0,0E0,0E0,0E0,1.2916827E-1,0E0,0E0,0E0],"parents":[2147483647,0,0,1,1,2,2,3,3,4,4,9,9],"right_children":[2,4,6,8,10,-1,-1,-1,-1,12,-1,-1,-1],"split_conditions":[5.596E-2,1.203E-2,2.384E1,2.657E-2,3.174E-1,5.332242E-3,-1.4289112E-1,5.6840714E-2,-1.09394215E-1,7.395E-2,-1.4687826E-2,1.6172825E-1,3.3668686E-2],"split_indices":[7,15,21,7,28,0,0,0,0,6,0,0,0],"split_type":[0,0,0,0,0,0,0,0,0,0,0,0,0],"sum_hessian":[1.1318723E1,7.426879E0,3.8918438E0,2.4666224E0,4.9602566E0,1.2562189E0,2.635625E0,1.099486E0,1.3671364E0,3.8114347E0,1.148822E0,2.7780435E0,1.0333911E0],"tree_param":{"num_deleted":"0","num_feature":"30","num_nodes":"13","size_leaf_vector":"1"}},{"base_weights":[1.336072E-4,2.8760725E-1,-4.93261E-1,-7.1602196E-2,5.5690753E-1,2.2950249E-2,-1.4494728E-1,5.78906E-2,-1.0068333E-1,1.5161347E-1,-1.4314845E-2],"categories":[],"categories_nodes":[],"categories_segments":[],"categories_sizes":[],"default_left":[0,0,0,0,0,0,0,0,0,0,0],"id":22,"left_children":[1,3,5,7,9,-1,-1,-1,-1,-1,-1],"loss_changes":[1.7850325E0,8.0907506E-1,7.3524344E-1,8.150526E-1,6.4320564E-1,0E0,0E0,0E0,0E0,0E0,0E0],"parents":[2147483647,0,0,1,1,2,2,3,3,4,4],"right_children":[2,4,6,8,10,-1,-1,-1,-1,-1,-1],"split_conditions":[8.765E2,1.75E-2,5.928E-2,1.38E0,1.357E-1,2.2950249E-2,-1.4494728E-1,5.78906E-2,-1.0068333E-1,1.5161347E-1,-1.4314845E-2],"split_indices":[23,18,6,11,27,0,0,0,0,0,0],"split_type":[0,0,0,0,0,0,0,0,0,0,0],"sum_hessian":[1.0584819E1,6.951596E0,3.6332238E0,3.2931309E0,3.6584647E0,1.1408454E0,2.4923782E0,1.9730645E0,1.3200663E0,2.615217E0,1.0432478E0],"tree_param":{"num_deleted":"0","num_feature":"30","num_nodes":"11","size_leaf_vector":"1"}},{"base_weights":[-1.9740013E-3,4.6321943E-1,-2.8579092E-1,1.4216076E-1,-2.2205679E-2,1.9646065E-1,-5.242453E-1,8.540105E-2,-3.0093703E-2,2.6216044E-4,-1.309641E-1],"categories":[],"categories_nodes":[],"categories_segments":[],"categories_sizes":[],"default_left":[0,0,0,0,0,0,0,0,0,0,0],"id":23,"left_children":[1,3,5,-1,-1,7,9,-1,-1,-1,-1],"loss_changes":[1.5680591E0,7.1897805E-1,9.507322E-1,0E0,0E0,3.1751657E-1,3.580804E-1,0E0,0E0,0E0,0E0],"parents":[2147483647,0,0,1,1,2,2,5,5,6,6],"right_children":[2,4,6,-1,-1,8,10,-1,-1,-1,-1],"split_conditions":[2.085E-1,4.276E1,7.391E2,1.4216076E-1,-2.2205679E-2,1.419E-1,2.243E1,8.540105E-2,-3.0093703E-2,2.6216044E-4,-1.309641E-1],"split_indices":[26,13,23,0,0,24,21,0,0,0,0],"split_type":[0,0,0,0,0,0,0,0,0,0,0],"sum_hessian":[9.873877E0,3.501915E0,6.371961E0,2.2807713E0,1.2211437E0,2.166509E0,4.2054524E0,1.1629083E0,1.0036005E0,1.0339276E0,3.1715248E0],"tree_param":{"num_deleted":"0","num_feature":"30","num_nodes":"11","size_leaf_vector":"1"}},{"base_weights":[3.205147E-3,2.043543E-1,-1.1956149E-1,4.8280078E-1,-1.5481223E-1,1.1762776E-2,1.3166976E-1,-1.0415449E-1,1.1178244E-1,7.1537584E-2,-3.1478595E-2],"categories":[],"categories_nodes":[],"categories_segments":[],"categories_sizes":[],"default_left":[0,0,0,0,0,0,0,0,0,0,0],"id":24,"left_children":[1,3,-1,5,7,-1,-1,-1,9,-1,-1],"loss_changes":[1.3608733E0,9.1703653E-1,0E0,3.3246374E-1,4.909237E-1,0E0,0E0,0E0,2.806366E-1,0E0,0E0],"parents":[2147483647,0,0,1,1,3,3,4,4,8,8],"right_children":[2,4,-1,6,8,-1,-1,-1,10,-1,-1],"split_conditions":[1.583E-1,2.02E1,-1.1956149E-1,1.628E-1,1.487E-2,1.1762776E-2,1.3166976E-1,-1.0415449E-1,2.806E-1,7.1537584E-2,-3.1478595E-2],"split_indices":[27,1,0,8,18,0,0,0,28,0,0],"split_type":[0,0,0,0,0,0,0,0,0,0,0],"sum_hessian":[9.246308E0,7.4222016E0,1.8241069E0,3.9870143E0,3.435187E0,1.5583318E0,2.4286823E0,1.0459563E0,2.389231E0,1.076743E0,1.312488E0],"tree_param":{"num_deleted":"0","num_feature":"30","num_nodes":"11","size_leaf_vector":"1"}},{"base_weights":[-1.1776186E-3,2.4578333E-1,-4.2839596E-1,-2.277292E-1,4.986275E-1,8.895147E-3,-1.23585425E-1,1.9142339E-2,-8.897545E-2,1.3050748E-1,-4.2616744E-3],"categories":[],"categories_nodes":[],"categories_segments":[],"categories_sizes":[],"default_left":[0,0,0,0,0,0,0,0,0,0,0],"id":25,"left_children":[1,3,5,7,9,-1,-1,-1,-1,-1,-1],"loss_changes":[1.1333758E0,9.2890924E-1,3.800661E-1,2.572956E-1,3.94266E-1,0E0,0E0,0E0,0E0,0E0,0E0],"parents":[2147483647,0,0,1,1,2,2,3,3,4,4],"right_children":[2,4,6,8,10,-1,-1,-1,-1,-1,-1],"split_conditions":[5.39E-2,1.203E-2,2.384E1,8.872E-2,8.765E2,8.895147E-3,-1.23585425E-1,1.9142339E-2,-8.897545E-2,1.3050748E-1,-4.2616744E-3],"split_indices":[7,15,21,4,23,0,0,0,0,0,0],"split_type":[0,0,0,0,0,0,0,0,0,0,0],"sum_hessian":[8.7442875E0,5.810257E0,2.9340303E0,2.0571225E0,3.7531345E0,1.0584885E0,1.8755419E0,1.0509583E0,1.0061642E0,2.6991158E0,1.0540187E0],"tree_param":{"num_deleted":"0","num_feature":"30","num_nodes":"11","size_leaf_vector":"1"}},{"base_weights":[-6.7002866E-3,4.0610418E-1,-2.5866044E-1,1.3036524E-1,-2.0854607E-2,2.276631E-2,-1.3100515E-1,8.194149E-2,-6.906109E-2],"categories":[],"categories_nodes":[],"categories_segments":[],"categories_sizes":[],"default_left":[0,0,0,0,0,0,0,0,0],"id":26,"left_children":[1,3,5,-1,-1,7,-1,-1,-1],"loss_changes":[1.0714148E0,5.584043E-1,7.2664136E-1,0E0,0E0,8.105231E-1,0E0,0E0,0E0],"parents":[2147483647,0,0,1,1,2,2,5,5],"right_children":[2,4,6,-1,-1,8,-1,-1,-1],"split_conditions":[2.085E-1,4.276E1,9.67E2,1.3036524E-1,-2.0854607E-2,2.737E1,-1.3100515E-1,8.194149E-2,-6.906109E-2],"split_indices":[26,13,23,0,0,21,0,0,0],"split_type":[0,0,0,0,0,0,0,0,0],"sum_hessian":[8.291118E0,2.910635E0,5.3804827E0,1.7776407E0,1.1329943E0,3.6976469E0,1.6828359E0,1.7474718E0,1.950175E0],"tree_param":{"num_deleted":"0","num_feature":"30","num_nodes":"9","size_leaf_vector":"1"}},{"base_weights":[-6.2877373E-3,1.6619621E-1,-1.0588334E-1,4.230646E-1,-1.5197317E-1,7.7601993E-3,1.18340336E-1,-7.421196E-2,4.443322E-2],"categories":[],"categories_nodes":[],"categories_segments":[],"categories_sizes":[],"default_left":[0,0,0,0,0,0,0,0,0],"id":27,"left_children":[1,3,-1,5,7,-1,-1,-1,-1],"loss_changes":[8.805635E-1,6.6637146E-1,0E0,2.583031E-1,4.1248357E-1,0E0,0E0,0E0,0E0],"parents":[2147483647,0,0,1,1,3,3,4,4],"right_children":[2,4,-1,6,8,-1,-1,-1,-1],"split_conditions":[1.583E-1,2.02E1,-1.0588334E-1,1.628E-1,3.048E-3,7.7601993E-3,1.18340336E-1,-7.421196E-2,4.443322E-2],"split_indices":[27,1,0,8,19,0,0,0,0],"split_type":[0,0,0,0,0,0,0,0,0],"sum_hessian":[7.783827E0,6.366871E0,1.4169555E0,3.3403864E0,3.0264847E0,1.3940136E0,1.9463726E0,1.9139526E0,1.1125323E0],"tree_param":{"num_deleted":"0","num_feature":"30","num_nodes":"9","size_leaf_vector":"1"}},{"base_weights":[-6.10738E-3,3.7039667E-1,-2.375466E-1,1.2270731E-1,-1.992851E-2,2.2279756E-2,-1.2247857E-1,8.4373385E-2,-2.503441E-1,1.3230527E-2,-9.214105E-2],"categories":[],"categories_nodes":[],"categories_segments":[],"categories_sizes":[],"default_left":[0,0,0,0,0,0,0,0,0,0,0],"id":28,"left_children":[1,3,5,-1,-1,7,-1,-1,9,-1,-1],"loss_changes":[8.255077E-1,4.74031E-1,5.8350086E-1,0E0,0E0,5.8717555E-1,0E0,0E0,2.4721232E-1,0E0,0E0],"parents":[2147483647,0,0,1,1,2,2,5,5,8,8],"right_children":[2,4,6,-1,-1,8,-1,-1,10,-1,-1],"split_conditions":[2.085E-1,4.276E1,9.67E2,1.2270731E-1,-1.992851E-2,2.558E1,-1.2247857E-1,8.4373385E-2,4.178E-2,1.3230527E-2,-9.214105E-2],"split_indices":[26,13,23,0,0,21,0,0,7,0,0],"split_type":[0,0,0,0,0,0,0,0,0,0,0],"sum_hessian":[7.4638495E0,2.612859E0,4.850991E0,1.5208647E0,1.0919943E0,3.4205701E0,1.4304205E0,1.1652383E0,2.255332E0,1.1742117E0,1.0811203E0],"tree_param":{"num_deleted":"0","num_feature":"30","num_nodes":"11","size_leaf_vector":"1"}},{"base_weights":[-6.8759182E-3,2.153773E-1,-3.56991E-1,-4.8623577E-2,4.9767548E-1,-8.923347E-3,-1.0783714E-1,1.199966E-1,2.1851E-2],"categories":[],"categories_nodes":[],"categories_segments":[],"categories_sizes":[],"default_left":[0,0,0,0,0,0,0,0,0],"id":29,"left_children":[1,3,5,-1,7,-1,-1,-1,-1],"loss_changes":[6.994113E-1,8.3511746E-1,1.741584E-1,0E0,8.3189845E-2,0E0,0E0,0E0,0E0],"parents":[2147483647,0,0,1,1,2,2,4,4],"right_children":[2,4,6,-1,8,-1,-1,-1,-1],"split_conditions":[5.074E-2,1.203E-2,1.583E-1,-4.8623577E-2,2.973E-1,-8.923347E-3,-1.0783714E-1,1.199966E-1,2.1851E-2],"split_indices":[7,15,27,0,28,0,0,0,0],"split_type":[0,0,0,0,0,0,0,0,0],"sum_hessian":[7.000128E0,4.51735E0,2.4827778E0,1.7743409E0,2.7430093E0,1.373237E0,1.1095407E0,1.7400239E0,1.0029854E0],"tree_param":{"num_deleted":"0","num_feature":"30","num_nodes":"9","size_leaf_vector":"1"}},{"base_weights":[-8.278091E-3,2.3504078E-1,-3.2159027E-1,4.5854732E-1,-3.0538825E-2,1.5171304E-2,-9.899354E-2,1.1872232E-1,1.3802308E-2],"categories":[],"categories_nodes":[],"categories_segments":[],"categories_sizes":[],"default_left":[0,0,0,0,0,0,0,0,0],"id":30,"left_children":[1,3,5,7,-1,-1,-1,-1,-1],"loss_changes":[6.6595906E-1,4.9783853E-1,2.999102E-1,1.3693511E-1,0E0,0E0,0E0,0E0,0E0],"parents":[2147483647,0,0,1,1,2,2,3,3],"right_children":[2,4,6,8,-1,-1,-1,-1,-1],"split_conditions":[3.133E1,1.38E-1,8.785E-2,7.847E2,-3.0538825E-2,1.5171304E-2,-9.899354E-2,1.1872232E-1,1.3802308E-2],"split_indices":[13,24,4,23,0,0,0,0,0],"split_type":[0,0,0,0,0,0,0,0,0],"sum_hessian":[6.744134E0,3.9367023E0,2.8074315E0,2.3813574E0,1.5553447E0,1.0235482E0,1.7838833E0,1.3792378E0,1.0021198E0],"tree_param":{"num_deleted":"0","num_feature":"30","num_nodes":"9","size_leaf_vector":"1"}},{"base_weights":[-3.7971467E-3,7.814546E-2,-1.903196E-1,1.709451E-1,-4.446294E-1,-5.8691163E-2,1.0646051E-1,-1.9912798E-2,-1.0786986E-1],"categories":[],"categories_nodes":[],"categories_segments":[],"categories_sizes":[],"default_left":[0,0,0,0,0,0,0,0,0],"id":31,"left_children":[1,-1,3,5,7,-1,-1,-1,-1],"loss_changes":[6.2670624E-1,0E0,6.060135E-1,6.773692E-1,6.603408E-2,0E0,0E0,0E0,0E0],"parents":[2147483647,0,0,2,2,3,3,4,4],"right_children":[2,-1,4,6,8,-1,-1,-1,-1],"split_conditions":[2.303E1,7.814546E-2,9.029E-2,5.592E-2,2.324E1,-5.8691163E-2,1.0646051E-1,-1.9912798E-2,-1.0786986E-1],"split_indices":[21,0,4,9,13,0,0,0,0],"split_type":[0,0,0,0,0,0,0,0,0],"sum_hessian":[6.505922E0,1.7370296E0,4.768892E0,2.105579E0,2.6633132E0,1.0036451E0,1.101934E0,1.0153879E0,1.6479251E0],"tree_param":{"num_deleted":"0","num_feature":"30","num_nodes":"9","size_leaf_vector":"1"}},{"base_weights":[-3.1919489E-3,3.3480936E-1,-2.17404E-1,1.10148184E-1,-1.3558111E-2,-3.764008E-1,4.1519675E-2,-5.5013853E-3,-9.68885E-2],"categories":[],"categories_nodes":[],"categories_segments":[],"categories_sizes":[],"default_left":[0,0,0,0,0,0,0,0,0],"id":32,"left_children":[1,3,5,-1,-1,7,-1,-1,-1],"loss_changes":[5.950356E-1,3.1480345E-1,4.1744596E-1,0E0,0E0,1.3781893E-1,0E0,0E0,0E0],"parents":[2147483647,0,0,1,1,2,2,5,5],"right_children":[2,4,6,-1,-1,8,-1,-1,-1],"split_conditions":[2.085E-1,4.276E1,3.932E-2,1.10148184E-1,-1.3558111E-2,2.78E-1,4.1519675E-2,-5.5013853E-3,-9.68885E-2],"split_indices":[26,13,15,0,0,28,0,0,0],"split_type":[0,0,0,0,0,0,0,0,0],"sum_hessian":[6.212959E0,2.1917133E0,4.0212455E0,1.1870741E0,1.0046391E0,3.0096626E0,1.011583E0,1.0082769E0,2.001386E0],"tree_param":{"num_deleted":"0","num_feature":"30","num_nodes":"9","size_leaf_vector":"1"}},{"base_weights":[2.8714263E-3,6.427672E-2,-1.8493833E-1,5.654352E-2,-1.0924182E-1,7.0071064E-2,-5.303024E-2],"categories":[],"categories_nodes":[],"categories_segments":[],"categories_sizes":[],"default_left":[0,0,0,0,0,0,0],"id":33,"left_children":[1,-1,3,5,-1,-1,-1],"loss_changes":[4.778068E-1,0E0,4.70085E-1,4.6375006E-1,0E0,0E0,0E0],"parents":[2147483647,0,0,2,2,3,3],"right_children":[2,-1,4,6,-1,-1,-1],"split_conditions":[1.927E-1,6.427672E-2,9.67E2,2.078E1,-1.0924182E-1,7.0071064E-2,-5.303024E-2],"split_indices":[26,0,23,1,0,0,0],"split_type":[0,0,0,0,0,0,0],"sum_hessian":[5.9938617E0,1.9594882E0,4.0343733E0,2.9236345E0,1.1107389E0,1.4814746E0,1.4421599E0],"tree_param":{"num_deleted":"0","num_feature":"30","num_nodes":"7","size_leaf_vector":"1"}},{"base_weights":[-2.1393187E-3,7.911175E-2,-1.462844E-1,2.1298663E-1,-3.9989302E-1,6.9593005E-2,-5.759448E-3,-2.2371693E-2,-1.0397556E-1],"categories":[],"categories_nodes":[],"categories_segments":[],"categories_sizes":[],"default_left":[0,0,0,0,0,0,0,0,0],"id":34,"left_children":[1,-1,3,5,7,-1,-1,-1,-1],"loss_changes":[4.4520643E-1,0E0,6.0355157E-1,1.0814656E-1,6.9117606E-2,0E0,0E0,0E0,0E0],"parents":[2147483647,0,0,2,2,3,3,4,4],"right_children":[2,-1,4,6,8,-1,-1,-1,-1],"split_conditions":[5.52E2,7.911175E-2,8.875E-2,2.66E-1,1.89E1,6.9593005E-2,-5.759448E-3,-2.2371693E-2,-1.0397556E-1],"split_indices":[23,0,4,28,1,0,0,0,0],"split_type":[0,0,0,0,0,0,0,0,0],"sum_hessian":[5.7568097E0,1.0674715E0,4.689338E0,2.0067213E0,2.682617E0,1.0059704E0,1.0007508E0,1.3570839E0,1.3255332E0],"tree_param":{"num_deleted":"0","num_feature":"30","num_nodes":"9","size_leaf_vector":"1"}},{"base_weights":[5.889773E-4,2.1139756E-1,-2.677026E-1,8.19305E-2,-2.4196273E-2,2.480307E-3,-8.33535E-2],"categories":[],"categories_nodes":[],"categories_segments":[],"categories_sizes":[],"default_left":[0,0,0,0,0,0,0],"id":35,"left_children":[1,3,5,-1,-1,-1,-1],"loss_changes":[4.285961E-1,3.290922E-1,1.4443159E-1,0E0,0E0,0E0,0E0],"parents":[2147483647,0,0,1,1,2,2],"right_children":[2,4,6,-1,-1,-1,-1],"split_conditions":[3.133E1,1.38E-1,1.096E-1,8.19305E-2,-2.4196273E-2,2.480307E-3,-8.33535E-2],"split_indices":[13,24,27,0,0,0,0],"split_type":[0,0,0,0,0,0,0],"sum_hessian":[5.5773783E0,3.242031E0,2.3353472E0,1.8851213E0,1.3569098E0,1.1295819E0,1.2057651E0],"tree_param":{"num_deleted":"0","num_feature":"30","num_nodes":"7","size_leaf_vector":"1"}},{"base_weights":[-2.987741E-3,6.760975E-2,-1.6662718E-1,-8.5448846E-2,1.3231607E-1,9.774047E-2,-5.8478553E-2],"categories":[],"categories_nodes":[],"categories_segments":[],"categories_sizes":[],"default_left":[0,0,0,0,0,0,0],"id":36,"left_children":[1,-1,3,-1,5,-1,-1],"loss_changes":[4.1448206E-1,0E0,4.4659638E-1,0E0,6.114125E-1,0E0,0E0],"parents":[2147483647,0,0,2,2,4,4],"right_children":[2,-1,4,-1,6,-1,-1],"split_conditions":[2.303E1,6.760975E-2,1.77E-2,-8.5448846E-2,5.074E-2,9.774047E-2,-5.8478553E-2],"split_indices":[21,0,15,0,7,0,0],"split_type":[0,0,0,0,0,0,0],"sum_hessian":[5.4177217E0,1.4110912E0,4.006631E0,1.9112405E0,2.0953903E0,1.0574093E0,1.037981E0],"tree_param":{"num_deleted":"0","num_feature":"30","num_nodes":"7","size_leaf_vector":"1"}},{"base_weights":[1.3468435E-3,1.4029522E-1,-6.8799905E-2,-4.9872033E-2,3.444315E-1,1.1411649E-1,-1.4622769E-2],"categories":[],"categories_nodes":[],"categories_segments":[],"categories_sizes":[],"default_left":[0,0,0,0,0,0,0],"id":37,"left_children":[1,3,-1,-1,5,-1,-1],"loss_changes":[3.4686422E-1,4.9535242E-1,0E0,0E0,4.0035295E-1,0E0,0E0],"parents":[2147483647,0,0,1,1,4,4],"right_children":[2,4,-1,-1,6,-1,-1],"split_conditions":[3.215E-1,1.203E-2,-6.8799905E-2,-4.9872033E-2,5.259E-2,1.1411649E-1,-1.4622769E-2],"split_indices":[28,15,0,0,7,0,0],"split_type":[0,0,0,0,0,0,0],"sum_hessian":[5.2227945E0,4.147731E0,1.0750637E0,1.3497636E0,2.797967E0,1.577205E0,1.220762E0],"tree_param":{"num_deleted":"0","num_feature":"30","num_nodes":"7","size_leaf_vector":"1"}},{"base_weights":[-1.0537135E-3,6.2214453E-2,-1.5618816E-1,2.6763538E-2,-3.5451108E-1,-2.1735203E-2,-8.5643314E-2],"categories":[],"categories_nodes":[],"categories_segments":[],"categories_sizes":[],"default_left":[0,0,0,0,0,0,0],"id":38,"left_children":[1,-1,3,-1,5,-1,-1],"loss_changes":[3.4145117E-1,0E0,3.180998E-1,0E0,9.067118E-3,0E0,0E0],"parents":[2147483647,0,0,2,2,4,4],"right_children":[2,-1,4,-1,6,-1,-1],"split_conditions":[2.303E1,6.2214453E-2,9.029E-2,2.6763538E-2,2.346E0,-2.1735203E-2,-8.5643314E-2],"split_indices":[21,0,4,0,12,0,0],"split_type":[0,0,0,0,0,0,0],"sum_hessian":[5.048252E0,1.3423349E0,3.7059171E0,1.6371626E0,2.0687547E0,1.0479423E0,1.0208124E0],"tree_param":{"num_deleted":"0","num_feature":"30","num_nodes":"7","size_leaf_vector":"1"}},{"base_weights":[-4.0595755E-3,2.2919641E-1,-2.0652908E-1,-1.1933687E-2,8.640324E-2,1.4738753E-2,-7.242476E-2],"categories":[],"categories_nodes":[],"categories_segments":[],"categories_sizes":[],"default_left":[0,0,0,0,0,0,0],"id":39,"left_children":[1,3,5,-1,-1,-1,-1],"loss_changes":[3.2840505E-1,2.1556908E-1,1.8853281E-1,0E0,0E0,0E0,0E0],"parents":[2147483647,0,0,1,1,2,2],"right_children":[2,4,6,-1,-1,-1,-1],"split_conditions":[7.283E2,1.743E-2,6.895E-2,-1.1933687E-2,8.640324E-2,1.4738753E-2,-7.242476E-2],"split_indices":[23,18,6,0,0,0,0],"split_type":[0,0,0,0,0,0,0],"sum_hessian":[4.951426E0,2.239451E0,2.711975E0,1.2149175E0,1.0245334E0,1.1561489E0,1.5558262E0],"tree_param":{"num_deleted":"0","num_feature":"30","num_nodes":"7","size_leaf_vector":"1"}},{"base_weights":[-2.9477483E-4,2.0351276E-1,-2.093231E-1,8.245957E-2,-2.6443902E-2,-8.046486E-2,1.4437079E-2],"categories":[],"categories_nodes":[],"categories_segments":[],"categories_sizes":[],"default_left":[0,0,0,0,0,0,0],"id":40,"left_children":[1,3,5,-1,-1,-1,-1],"loss_changes":[2.9081634E-1,2.9684314E-1,2.1210395E-1,0E0,0E0,0E0,0E0],"parents":[2147483647,0,0,1,1,2,2],"right_children":[2,4,6,-1,-1,-1,-1],"split_conditions":[2.829E-1,3.658E1,1.906E-2,8.245957E-2,-2.6443902E-2,-8.046486E-2,1.4437079E-2],"split_indices":[28,13,18,0,0,0,0],"split_type":[0,0,0,0,0,0,0],"sum_hessian":[4.826465E0,2.457111E0,2.3693542E0,1.3743654E0,1.0827456E0,1.1510355E0,1.2183187E0],"tree_param":{"num_deleted":"0","num_feature":"30","num_nodes":"7","size_leaf_vector":"1"}},{"base_weights":[-1.7786237E-3,5.7631668E-2,-1.4516647E-1,-7.285072E-2,2.5307367E-2],"categories":[],"categories_nodes":[],"categories_segments":[],"categories_sizes":[],"default_left":[0,0,0,0,0],"id":41,"left_children":[1,-1,3,-1,-1],"loss_changes":[2.7914858E-1,0E0,3.1303734E-1,0E0,0E0],"parents":[2147483647,0,0,2,2],"right_children":[2,-1,4,-1,-1],"split_conditions":[2.303E1,5.7631668E-2,1.77E-2,-7.285072E-2,2.5307367E-2],"split_indices":[21,0,15,0,0],"split_type":[0,0,0,0,0],"sum_hessian":[4.7083964E0,1.2239234E0,3.4844728E0,1.7404426E0,1.7440302E0],"tree_param":{"num_deleted":"0","num_feature":"30","num_nodes":"5","size_leaf_vector":"1"}},{"base_weights":[3.115524E-4,5.200528E-2,-1.7067574E-1,3.0716741E-2,-6.857576E-2],"categories":[],"categories_nodes":[],"categories_segments":[],"categories_sizes":[],"default_left":[0,0,0,0,0],"id":42,"left_children":[1,-1,3,-1,-1],"loss_changes":[2.9479828E-1,0E0,2.762426E-1,0E0,0E0],"parents":[2147483647,0,0,2,2],"right_children":[2,-1,4,-1,-1],"split_conditions":[2.085E-1,5.200528E-2,7.259E2,3.0716741E-2,-6.857576E-2],"split_indices":[26,0,23,0,0],"split_type":[0,0,0,0,0],"sum_hessian":[4.6390386E0,1.6349525E0,3.0040863E0,1.0795019E0,1.9245843E0],"tree_param":{"num_deleted":"0","num_feature":"30","num_nodes":"5","size_leaf_vector":"1"}},{"base_weights":[2.6698199E-3,1.8287154E-1,-4.5137774E-2,7.757752E-2,-1.2143793E-2],"categories":[],"categories_nodes":[],"categories_segments":[],"categories_sizes":[],"default_left":[0,0,0,0,0],"id":43,"left_children":[1,3,-1,-1,-1],"loss_changes":[2.6904982E-1,2.0564464E-1,0E0,0E0,0E0],"parents":[2147483647,0,0,1,1],"right_children":[2,4,-1,-1,-1],"split_conditions":[3.133E1,2.829E-1,-4.5137774E-2,7.757752E-2,-1.2143793E-2],"split_indices":[13,28,0,0,0],"split_type":[0,0,0,0,0],"sum_hessian":[4.5352206E0,2.6462283E0,1.8889921E0,1.1152289E0,1.5309994E0],"tree_param":{"num_deleted":"0","num_feature":"30","num_nodes":"5","size_leaf_vector":"1"}},{"base_weights":[6.202715E-3,1.5909906E-1,-4.9431045E-2,-2.6931573E-2,7.965663E-2],"categories":[],"categories_nodes":[],"categories_segments":[],"categories_sizes":[],"default_left":[0,0,0,0,0],"id":44,"left_children":[1,3,-1,-1,-1],"loss_changes":[2.507317E-1,3.3551636E-1,0E0,0E0,0E0],"parents":[2147483647,0,0,1,1],"right_children":[2,4,-1,-1,-1],"split_conditions":[6.988E2,1.75E-2,-4.9431045E-2,-2.6931573E-2,7.965663E-2],"split_indices":[3,18,0,0,0],"split_type":[0,0,0,0,0],"sum_hessian":[4.4574895E0,3.011905E0,1.4455848E0,1.5478748E0,1.4640301E0],"tree_param":{"num_deleted":"0","num_feature":"30","num_nodes":"5","size_leaf_vector":"1"}},{"base_weights":[6.032376E-3,1.5055616E-1,-5.3148653E-2,-4.960691E-2,7.425899E-2],"categories":[],"categories_nodes":[],"categories_segments":[],"categories_sizes":[],"default_left":[0,0,0,0,0],"id":45,"left_children":[1,3,-1,-1,-1],"loss_changes":[2.5063255E-1,4.562701E-1,0E0,0E0,0E0],"parents":[2147483647,0,0,1,1],"right_children":[2,4,-1,-1,-1],"split_conditions":[5.596E-2,6.053E-2,-5.3148653E-2,-4.960691E-2,7.425899E-2],"split_indices":[7,5,0,0,0],"split_type":[0,0,0,0,0],"sum_hessian":[4.362367E0,3.1390977E0,1.2232695E0,1.0747507E0,2.064347E0],"tree_param":{"num_deleted":"0","num_feature":"30","num_nodes":"5","size_leaf_vector":"1"}},{"base_weights":[-2.0208834E-4,4.7187056E-2,-1.5774088E-1,2.2617232E-2,-6.0673337E-2],"categories":[],"categories_nodes":[],"categories_segments":[],"categories_sizes":[],"default_left":[0,0,0,0,0],"id":46,"left_children":[1,-1,3,-1,-1],"loss_changes":[2.330572E-1,0E0,1.8248242E-1,0E0,0E0],"parents":[2147483647,0,0,2,2],"right_children":[2,-1,4,-1,-1],"split_conditions":[2.085E-1,4.7187056E-2,7.391E2,2.2617232E-2,-6.0673337E-2],"split_indices":[26,0,23,0,0],"split_type":[0,0,0,0,0],"sum_hessian":[4.2644186E0,1.507368E0,2.7570508E0,1.0422246E0,1.7148261E0],"tree_param":{"num_deleted":"0","num_feature":"30","num_nodes":"5","size_leaf_vector":"1"}},{"base_weights":[1.5032333E-3,5.5577274E-2,-1.3753982E-1,2.684176E-2,-6.6286035E-2],"categories":[],"categories_nodes":[],"categories_segments":[],"categories_sizes":[],"default_left":[0,0,0,0,0],"id":47,"left_children":[1,-1,3,-1,-1],"loss_changes":[2.3757367E-1,0E0,2.615717E-1,0E0,0E0],"parents":[2147483647,0,0,2,2],"right_children":[2,-1,4,-1,-1],"split_conditions":[2.288E1,5.5577274E-2,9.029E-2,2.684176E-2,-6.6286035E-2],"split_indices":[21,0,4,0,0],"split_type":[0,0,0,0,0],"sum_hessian":[4.1875515E0,1.0673536E0,3.120198E0,1.4274101E0,1.6927878E0],"tree_param":{"num_deleted":"0","num_feature":"30","num_nodes":"5","size_leaf_vector":"1"}},{"base_weights":[4.313018E-3,1.459473E-1,-4.7635425E-2,-2.1244308E-2,7.158369E-2],"categories":[],"categories_nodes":[],"categories_segments":[],"categories_sizes":[],"default_left":[0,0,0,0,0],"id":48,"left_children":[1,3,-1,-1,-1],"loss_changes":[2.1047513E-1,2.4379897E-1,0E0,0E0,0E0],"parents":[2147483647,0,0,1,1],"right_children":[2,4,-1,-1,-1],"split_conditions":[8.765E2,1.75E-2,-4.7635425E-2,-2.1244308E-2,7.158369E-2],"split_indices":[23,18,0,0,0],"split_type":[0,0,0,0,0],"sum_hessian":[4.1161523E0,2.8497777E0,1.2663747E0,1.5293235E0,1.3204542E0],"tree_param":{"num_deleted":"0","num_feature":"30","num_nodes":"5","size_leaf_vector":"1"}},{"base_weights":[4.2923805E-3,1.8510413E-1,-3.6291342E-2,7.195454E-2,-1.5736233E-2],"categories":[],"categories_nodes":[],"categories_segments":[],"categories_sizes":[],"default_left":[0,0,0,0,0],"id":49,"left_children":[1,3,-1,-1,-1],"loss_changes":[2.0286727E-1,1.6879366E-1,0E0,0E0,0E0],"parents":[2147483647,0,0,1,1],"right_children":[2,4,-1,-1,-1],"split_conditions":[2.829E-1,3.857E-1,-3.6291342E-2,7.195454E-2,-1.5736233E-2],"split_indices":[28,10,0,0,0],"split_type":[0,0,0,0,0],"sum_hessian":[4.04022E0,2.049079E0,1.9911408E0,1.0138568E0,1.0352222E0],"tree_param":{"num_deleted":"0","num_feature":"30","num_nodes":"5","size_leaf_vector":"1"}},{"base_weights":[7.7658244E-3,1.52554E-1,-4.3348275E-2,-1.7857293E-2,7.365922E-2],"categories":[],"categories_nodes":[],"categories_segments":[],"categories_sizes":[],"default_left":[0,0,0,0,0],"id":50,"left_children":[1,3,-1,-1,-1],"loss_changes":[1.9496757E-1,2.2148904E-1,0E0,0E0,0E0],"parents":[2147483647,0,0,1,1],"right_children":[2,4,-1,-1,-1],"split_conditions":[1.374E-1,1.762E-2,-4.3348275E-2,-1.7857293E-2,7.365922E-2],"split_indices":[24,15,0,0,0],"split_type":[0,0,0,0,0],"sum_hessian":[3.9807072E0,2.6148462E0,1.365861E0,1.5092096E0,1.1056366E0],"tree_param":{"num_deleted":"0","num_feature":"30","num_nodes":"5","size_leaf_vector":"1"}},{"base_weights":[9.066389E-3,4.9980916E-2,-1.1945816E-1,-6.0651492E-2,2.3087095E-2],"categories":[],"categories_nodes":[],"categories_segments":[],"categories_sizes":[],"default_left":[0,0,0,0,0],"id":51,"left_children":[1,-1,3,-1,-1],"loss_changes":[1.8222399E-1,0E0,2.0278971E-1,0E0,0E0],"parents":[2147483647,0,0,2,2],"right_children":[2,-1,4,-1,-1],"split_conditions":[2.339E1,4.9980916E-2,1.77E-2,-6.0651492E-2,2.3087095E-2],"split_indices":[21,0,15,0,0],"split_type":[0,0,0,0,0],"sum_hessian":[3.9225538E0,1.0362833E0,2.8862705E0,1.4559661E0,1.4303043E0],"tree_param":{"num_deleted":"0","num_feature":"30","num_nodes":"5","size_leaf_vector":"1"}},{"base_weights":[9.854735E-3,1.4806688E-1,-4.7652032E-2,-3.4576755E-2,6.8644725E-2],"categories":[],"categories_nodes":[],"categories_segments":[],"categories_sizes":[],"default_left":[0,0,0,0,0],"id":52,"left_children":[1,3,-1,-1,-1],"loss_changes":[2.024193E-1,2.9403365E-1,0E0,0E0,0E0],"parents":[2147483647,0,0,1,1],"right_children":[2,4,-1,-1,-1],"split_conditions":[5.39E-2,1.203E-2,-4.7652032E-2,-3.4576755E-2,6.8644725E-2],"split_indices":[7,15,0,0,0],"split_type":[0,0,0,0,0],"sum_hessian":[3.8739789E0,2.7469988E0,1.1269802E0,1.081884E0,1.6651146E0],"tree_param":{"num_deleted":"0","num_feature":"30","num_nodes":"5","size_leaf_vector":"1"}},{"base_weights":[5.424032E-3,4.4756737E-2,-1.4621031E-1,1.1914043E-2,-5.734071E-2],"categories":[],"categories_nodes":[],"categories_segments":[],"categories_sizes":[],"default_left":[0,0,0,0,0],"id":53,"left_children":[1,-1,3,-1,-1],"loss_changes":[1.9161929E-1,0E0,1.16447575E-1,0E0,0E0],"parents":[2147483647,0,0,2,2],"right_children":[2,-1,4,-1,-1],"split_conditions":[2.085E-1,4.4756737E-2,2.42E1,1.1914043E-2,-5.734071E-2],"split_indices":[26,0,13,0,0],"split_type":[0,0,0,0,0],"sum_hessian":[3.7990296E0,1.361952E0,2.4370778E0,1.2224894E0,1.2145883E0],"tree_param":{"num_deleted":"0","num_feature":"30","num_nodes":"5","size_leaf_vector":"1"}},{"base_weights":[4.1807597E-3,1.4394201E-1,-4.3558754E-2,-1.8754074E-2,6.6359065E-2],"categories":[],"categories_nodes":[],"categories_segments":[],"categories_sizes":[],"default_left":[0,0,0,0,0],"id":54,"left_children":[1,3,-1,-1,-1],"loss_changes":[1.784099E-1,1.8789208E-1,0E0,0E0,0E0],"parents":[2147483647,0,0,1,1],"right_children":[2,4,-1,-1,-1],"split_conditions":[6.988E2,1.75E-2,-4.3558754E-2,-1.8754074E-2,6.6359065E-2],"split_indices":[3,18,0,0,0],"split_type":[0,0,0,0,0],"sum_hessian":[3.740295E0,2.510901E0,1.2293938E0,1.32944E0,1.181461E0],"tree_param":{"num_deleted":"0","num_feature":"30","num_nodes":"5","size_leaf_vector":"1"}},{"base_weights":[4.4648573E-3,4.1425798E-2,-1.4775525E-1,-6.2079277E-2,1.7668389E-2],"categories":[],"categories_nodes":[],"categories_segments":[],"categories_sizes":[],"default_left":[0,0,0,0,0],"id":55,"left_children":[1,-1,3,-1,-1],"loss_changes":[1.7492053E-1,0E0,1.5241618E-1,0E0,0E0],"parents":[2147483647,0,0,2,2],"right_children":[2,-1,4,-1,-1],"split_conditions":[5.467E-3,4.1425798E-2,1.759E-2,-6.2079277E-2,1.7668389E-2],"split_indices":[14,0,18,0,0],"split_type":[0,0,0,0,0],"sum_hessian":[3.6780617E0,1.4229037E0,2.2551582E0,1.1489674E0,1.1061907E0],"tree_param":{"num_deleted":"0","num_feature":"30","num_nodes":"5","size_leaf_vector":"1"}},{"base_weights":[2.878096E-3,3.288259E-2,-3.5189223E-2],"categories":[],"categories_nodes":[],"categories_segments":[],"categories_sizes":[],"default_left":[0,0,0],"id":56,"left_children":[1,-1,-1],"loss_changes":[1.6281903E-1,0E0,0E0],"parents":[2147483647,0,0],"right_children":[2,-1,-1],"split_conditions":[2.02E1,3.288259E-2,-3.5189223E-2],"split_indices":[1,0,0],"split_type":[0,0,0],"sum_hessian":[3.6351042E0,1.9522203E0,1.6828839E0],"tree_param":{"num_deleted":"0","num_feature":"30","num_nodes":"3","size_leaf_vector":"1"}},{"base_weights":[1.8300036E-3,3.796595E-2,-1.5602745E-1,1.7193455E-2,-6.343752E-2],"categories":[],"categories_nodes":[],"categories_segments":[],"categories_sizes":[],"default_left":[0,0,0,0,0],"id":57,"left_children":[1,-1,3,-1,-1],"loss_changes":[1.6638029E-1,0E0,1.463671E-1,0E0,0E0],"parents":[2147483647,0,0,2,2],"right_children":[2,-1,4,-1,-1],"split_conditions":[2.472E1,3.796595E-2,7.16E-2,1.7193455E-2,-6.343752E-2],"split_indices":[13,0,6,0,0],"split_type":[0,0,0,0,0],"sum_hessian":[3.608313E0,1.5544764E0,2.0538368E0,1.0075272E0,1.0463095E0],"tree_param":{"num_deleted":"0","num_feature":"30","num_nodes":"5","size_leaf_vector":"1"}},{"base_weights":[-4.990626E-4,3.2735284E-2,-3.329554E-2],"categories":[],"categories_nodes":[],"categories_segments":[],"categories_sizes":[],"default_left":[0,0,0],"id":58,"left_children":[1,-1,-1],"loss_changes":[1.512292E-1,0E0,0E0],"parents":[2147483647,0,0],"right_children":[2,-1,-1],"split_conditions":[2.829E-1,3.2735284E-2,-3.329554E-2],"split_indices":[28,0,0],"split_type":[0,0,0],"sum_hessian":[3.5498145E0,1.7915739E0,1.7582406E0],"tree_param":{"num_deleted":"0","num_feature":"30","num_nodes":"3","size_leaf_vector":"1"}},{"base_weights":[-5.0626096E-4,1.2774171E-1,-4.284397E-2,-1.5915101E-2,5.951759E-2],"categories":[],"categories_nodes":[],"categories_segments":[],"categories_sizes":[],"default_left":[0,0,0,0,0],"id":59,"left_children":[1,3,-1,-1,-1],"loss_changes":[1.5136632E-1,1.4530037E-1,0E0,0E0,0E0],"parents":[2147483647,0,0,1,1],"right_children":[2,4,-1,-1,-1],"split_conditions":[8.765E2,1.75E-2,-4.284397E-2,-1.5915101E-2,5.951759E-2],"split_indices":[23,18,0,0,0],"split_type":[0,0,0,0,0],"sum_hessian":[3.5242271E0,2.4539223E0,1.0703048E0,1.3444043E0,1.1095179E0],"tree_param":{"num_deleted":"0","num_feature":"30","num_nodes":"5","size_leaf_vector":"1"}},{"base_weights":[-1.0373228E-4,3.6882203E-2,-1.4584607E-1,6.0273013E-3,-4.955331E-2],"categories":[],"categories_nodes":[],"categories_segments":[],"categories_sizes":[],"default_left":[0,0,0,0,0],"id":60,"left_children":[1,-1,3,-1,-1],"loss_changes":[1.4718178E-1,0E0,6.2305965E-2,0E0,0E0],"parents":[2147483647,0,0,2,2],"right_children":[2,-1,4,-1,-1],"split_conditions":[8.875E-2,3.6882203E-2,2.685E1,6.0273013E-3,-4.955331E-2],"split_indices":[4,0,13,0,0],"split_type":[0,0,0,0,0],"sum_hessian":[3.4729996E0,1.415547E0,2.0574527E0,1.0128729E0,1.0445796E0],"tree_param":{"num_deleted":"0","num_feature":"30","num_nodes":"5","size_leaf_vector":"1"}},{"base_weights":[-1.6129493E-3,3.0101297E-2,-3.351254E-2],"categories":[],"categories_nodes":[],"categories_segments":[],"categories_sizes":[],"default_left":[0,0,0],"id":61,"left_children":[1,-1,-1],"loss_changes":[1.3735479E-1,0E0,0E0],"parents":[2147483647,0,0],"right_children":[2,-1,-1],"split_conditions":[2.02E1,3.0101297E-2,-3.351254E-2],"split_indices":[1,0,0],"split_type":[0,0,0],"sum_hessian":[3.442035E0,1.8444041E0,1.5976309E0],"tree_param":{"num_deleted":"0","num_feature":"30","num_nodes":"3","size_leaf_vector":"1"}},{"base_weights":[-2.0599517E-3,1.1887937E-1,-4.0375035E-2,-1.40005E-2,5.4834355E-2],"categories":[],"categories_nodes":[],"categories_segments":[],"categories_sizes":[],"default_left":[0,0,0,0,0],"id":62,"left_children":[1,3,-1,-1,-1],"loss_changes":[1.3078791E-1,1.1840065E-1,0E0,0E0,0E0],"parents":[2147483647,0,0,1,1],"right_children":[2,4,-1,-1,-1],"split_conditions":[8.765E2,1.75E-2,-4.0375035E-2,-1.40005E-2,5.4834355E-2],"split_indices":[23,18,0,0,0],"split_type":[0,0,0,0,0],"sum_hessian":[3.41907E0,2.3822517E0,1.0368181E0,1.322689E0,1.0595627E0],"tree_param":{"num_deleted":"0","num_feature":"30","num_nodes":"5","size_leaf_vector":"1"}},{"base_weights":[-1.4569089E-3,1.3255206E-1,-3.8115185E-2,-1.860058E-2,5.854389E-2],"categories":[],"categories_nodes":[],"categories_segments":[],"categories_sizes":[],"default_left":[0,0,0,0,0],"id":63,"left_children":[1,3,-1,-1,-1],"loss_changes":[1.3615415E-1,1.410477E-1,0E0,0E0,0E0],"parents":[2147483647,0,0,1,1],"right_children":[2,4,-1,-1,-1],"split_conditions":[2.991E-1,1.628E-1,-3.8115185E-2,-1.860058E-2,5.854389E-2],"split_indices":[28,8,0,0,0],"split_type":[0,0,0,0,0],"sum_hessian":[3.375571E0,2.1507008E0,1.2248703E0,1.0671837E0,1.0835171E0],"tree_param":{"num_deleted":"0","num_feature":"30","num_nodes":"5","size_leaf_vector":"1"}},{"base_weights":[-6.18101E-4,1.2792356E-1,-3.881466E-2,-2.3442062E-2,5.9204157E-2],"categories":[],"categories_nodes":[],"categories_segments":[],"categories_sizes":[],"default_left":[0,0,0,0,0],"id":64,"left_children":[1,3,-1,-1,-1],"loss_changes":[1.3263287E-1,1.6686034E-1,0E0,0E0,0E0],"parents":[2147483647,0,0,1,1],"right_children":[2,4,-1,-1,-1],"split_conditions":[1.374E-1,7.175E-2,-3.881466E-2,-2.3442062E-2,5.9204157E-2],"split_indices":[24,5,0,0,0],"split_type":[0,0,0,0,0],"sum_hessian":[3.3353076E0,2.2073636E0,1.127944E0,1.0210718E0,1.1862919E0],"tree_param":{"num_deleted":"0","num_feature":"30","num_nodes":"5","size_leaf_vector":"1"}},{"base_weights":[-1.0605982E-3,3.802725E-2,-1.3470015E-1,8.512255E-3,-5.031653E-2],"categories":[],"categories_nodes":[],"categories_segments":[],"categories_sizes":[],"default_left":[0,0,0,0,0],"id":65,"left_children":[1,-1,3,-1,-1],"loss_changes":[1.3528842E-1,0E0,7.5180545E-2,0E0,0E0],"parents":[2147483647,0,0,2,2],"right_children":[2,-1,4,-1,-1],"split_conditions":[2.085E-1,3.802725E-2,2.42E1,8.512255E-3,-5.031653E-2],"split_indices":[26,0,13,0,0],"split_type":[0,0,0,0,0],"sum_hessian":[3.2923982E0,1.180588E0,2.1118104E0,1.0918291E0,1.0199813E0],"tree_param":{"num_deleted":"0","num_feature":"30","num_nodes":"5","size_leaf_vector":"1"}},{"base_weights":[-1.8008101E-3,1.3254601E-1,-3.6940638E-2,4.709359E-2,-6.831883E-3],"categories":[],"categories_nodes":[],"categories_segments":[],"categories_sizes":[],"default_left":[0,0,0,0,0],"id":66,"left_children":[1,3,-1,-1,-1],"loss_changes":[1.289428E-1,6.008445E-2,0E0,0E0,0E0],"parents":[2147483647,0,0,1,1],"right_children":[2,4,-1,-1,-1],"split_conditions":[3.444E1,2.799E1,-3.6940638E-2,4.709359E-2,-6.831883E-3],"split_indices":[13,21,0,0,0],"split_type":[0,0,0,0,0],"sum_hessian":[3.251165E0,2.0331087E0,1.2180561E0,1.0020043E0,1.0311046E0],"tree_param":{"num_deleted":"0","num_feature":"30","num_nodes":"5","size_leaf_vector":"1"}},{"base_weights":[-5.9536385E-4,3.3506963E-2,-2.6966307E-2],"categories":[],"categories_nodes":[],"categories_segments":[],"categories_sizes":[],"default_left":[0,0,0],"id":67,"left_children":[1,-1,-1],"loss_changes":[1.1782091E-1,0E0,0E0],"parents":[2147483647,0,0],"right_children":[2,-1,-1],"split_conditions":[8.875E-2,3.3506963E-2,-2.6966307E-2],"split_indices":[4,0,0],"split_type":[0,0,0],"sum_hessian":[3.2195625E0,1.3192046E0,1.900358E0],"tree_param":{"num_deleted":"0","num_feature":"30","num_nodes":"3","size_leaf_vector":"1"}},{"base_weights":[1.106626E-3,1.2061616E-1,-3.6598913E-2,4.9673077E-2,-1.5180941E-2],"categories":[],"categories_nodes":[],"categories_segments":[],"categories_sizes":[],"default_left":[0,0,0,0,0],"id":68,"left_children":[1,3,-1,-1,-1],"loss_changes":[1.14553116E-1,9.797202E-2,0E0,0E0,0E0],"parents":[2147483647,0,0,1,1],"right_children":[2,4,-1,-1,-1],"split_conditions":[6.988E2,9.699E-2,-3.6598913E-2,4.9673077E-2,-1.5180941E-2],"split_indices":[3,4,0,0,0],"split_type":[0,0,0,0,0],"sum_hessian":[3.2033298E0,2.1515112E0,1.0518186E0,1.1440226E0,1.0074886E0],"tree_param":{"num_deleted":"0","num_feature":"30","num_nodes":"5","size_leaf_vector":"1"}},{"base_weights":[4.9136754E-4,2.9812554E-2,-3.164273E-2],"categories":[],"categories_nodes":[],"categories_segments":[],"categories_sizes":[],"default_left":[0,0,0],"id":69,"left_children":[1,-1,-1],"loss_changes":[1.2172901E-1,0E0,0E0],"parents":[2147483647,0,0],"right_children":[2,-1,-1],"split_conditions":[1.977E1,2.9812554E-2,-3.164273E-2],"split_indices":[1,0,0],"split_type":[0,0,0],"sum_hessian":[3.162396E0,1.6647236E0,1.4976722E0],"tree_param":{"num_deleted":"0","num_feature":"30","num_nodes":"3","size_leaf_vector":"1"}},{"base_weights":[-3.4225544E-5,3.5089772E-2,-1.22871235E-1,9.434893E-3,-4.6054278E-2],"categories":[],"categories_nodes":[],"categories_segments":[],"categories_sizes":[],"default_left":[0,0,0,0,0],"id":70,"left_children":[1,-1,3,-1,-1],"loss_changes":[1.10841475E-1,0E0,6.610088E-2,0E0,0E0],"parents":[2147483647,0,0,2,2],"right_children":[2,-1,4,-1,-1],"split_conditions":[2.085E-1,3.5089772E-2,2.766E1,9.434893E-3,-4.6054278E-2],"split_indices":[26,0,21,0,0],"split_type":[0,0,0,0,0],"sum_hessian":[3.1419845E0,1.1173908E0,2.0245938E0,1.0007982E0,1.0237955E0],"tree_param":{"num_deleted":"0","num_feature":"30","num_nodes":"5","size_leaf_vector":"1"}},{"base_weights":[-4.281685E-4,3.183214E-2,-2.719518E-2],"categories":[],"categories_nodes":[],"categories_segments":[],"categories_sizes":[],"default_left":[0,0,0],"id":71,"left_children":[1,-1,-1],"loss_changes":[1.1055214E-1,0E0,0E0],"parents":[2147483647,0,0],"right_children":[2,-1,-1],"split_conditions":[2.472E1,3.183214E-2,-2.719518E-2],"split_indices":[13,0,0],"split_type":[0,0,0],"sum_hessian":[3.1101372E0,1.3483894E0,1.7617478E0],"tree_param":{"num_deleted":"0","num_feature":"30","num_nodes":"3","size_leaf_vector":"1"}},{"base_weights":[8.158813E-4,-3.4472756E-2,1.18062265E-1,6.3272245E-2,-2.8415686E-2],"categories":[],"categories_nodes":[],"categories_segments":[],"categories_sizes":[],"default_left":[0,0,0,0,0],"id":72,"left_children":[1,-1,3,-1,-1],"loss_changes":[1.0340775E-1,0E0,2.0139097E-1,0E0,0E0],"parents":[2147483647,0,0,2,2],"right_children":[2,-1,4,-1,-1],"split_conditions":[6.678E-2,-3.4472756E-2,5.074E-2,6.3272245E-2,-2.8415686E-2],"split_indices":[5,0,7,0,0],"split_type":[0,0,0,0,0],"sum_hessian":[3.090587E0,1.0579035E0,2.0326834E0,1.0308076E0,1.0018756E0],"tree_param":{"num_deleted":"0","num_feature":"30","num_nodes":"5","size_leaf_vector":"1"}},{"base_weights":[9.797649E-4,3.1865835E-2,-2.5607089E-2],"categories":[],"categories_nodes":[],"categories_segments":[],"categories_sizes":[],"default_left":[0,0,0],"id":73,"left_children":[1,-1,-1],"loss_changes":[1.03031784E-1,0E0,0E0],"parents":[2147483647,0,0],"right_children":[2,-1,-1],"split_conditions":[2.675E-1,3.1865835E-2,-2.5607089E-2],"split_indices":[28,0,0],"split_type":[0,0,0],"sum_hessian":[3.0447433E0,1.2614782E0,1.7832651E0],"tree_param":{"num_deleted":"0","num_feature":"30","num_nodes":"3","size_leaf_vector":"1"}},{"base_weights":[2.3705075E-3,3.117911E-2,-2.3213139E-2],"categories":[],"categories_nodes":[],"categories_segments":[],"categories_sizes":[],"default_left":[0,0,0],"id":74,"left_children":[1,-1,-1],"loss_changes":[9.1314025E-2,0E0,0E0],"parents":[2147483647,0,0],"right_children":[2,-1,-1],"split_conditions":[5.467E-3,3.117911E-2,-2.3213139E-2],"split_indices":[14,0,0],"split_type":[0,0,0],"sum_hessian":[3.0268497E0,1.1804229E0,1.846427E0],"tree_param":{"num_deleted":"0","num_feature":"30","num_nodes":"3","size_leaf_vector":"1"}},{"base_weights":[3.9118524E-3,-2.708487E-2,2.737972E-2],"categories":[],"categories_nodes":[],"categories_segments":[],"categories_sizes":[],"default_left":[0,0,0],"id":75,"left_children":[1,-1,-1],"loss_changes":[9.2936486E-2,0E0,0E0],"parents":[2147483647,0,0],"right_children":[2,-1,-1],"split_conditions":[1.77E-2,-2.708487E-2,2.737972E-2],"split_indices":[15,0,0],"split_type":[0,0,0],"sum_hessian":[3.0149815E0,1.4633911E0,1.5515904E0],"tree_param":{"num_deleted":"0","num_feature":"30","num_nodes":"3","size_leaf_vector":"1"}},{"base_weights":[3.2256856E-3,3.4799393E-2,-2.2574494E-2],"categories":[],"categories_nodes":[],"categories_segments":[],"categories_sizes":[],"default_left":[0,0,0],"id":76,"left_children":[1,-1,-1],"loss_changes":[9.904023E-2,0E0,0E0],"parents":[2147483647,0,0],"right_children":[2,-1,-1],"split_conditions":[1.927E-1,3.4799393E-2,-2.2574494E-2],"split_indices":[26,0,0],"split_type":[0,0,0],"sum_hessian":[3.0048344E0,1.0142486E0,1.9905858E0],"tree_param":{"num_deleted":"0","num_feature":"30","num_nodes":"3","size_leaf_vector":"1"}},{"base_weights":[5.7059014E-3,3.113293E-2,-2.4809545E-2],"categories":[],"categories_nodes":[],"categories_segments":[],"categories_sizes":[],"default_left":[0,0,0],"id":77,"left_children":[1,-1,-1],"loss_changes":[9.685569E-2,0E0,0E0],"parents":[2147483647,0,0],"right_children":[2,-1,-1],"split_conditions":[2.472E1,3.113293E-2,-2.4809545E-2],"split_indices":[13,0,0],"split_type":[0,0,0],"sum_hessian":[2.985357E0,1.29222E0,1.6931372E0],"tree_param":{"num_deleted":"0","num_feature":"30","num_nodes":"3","size_leaf_vector":"1"}},{"base_weights":[6.2077846E-3,-3.0884717E-2,2.4065888E-2],"categories":[],"categories_nodes":[],"categories_segments":[],"categories_sizes":[],"default_left":[0,0,0],"id":78,"left_children":[1,-1,-1],"loss_changes":[9.132528E-2,0E0,0E0],"parents":[2147483647,0,0],"right_children":[2,-1,-1],"split_conditions":[7.175E-2,-3.0884717E-2,2.4065888E-2],"split_indices":[5,0,0],"split_type":[0,0,0],"sum_hessian":[2.9682248E0,1.0862002E0,1.8820246E0],"tree_param":{"num_deleted":"0","num_feature":"30","num_nodes":"3","size_leaf_vector":"1"}},{"base_weights":[3.2618816E-3,3.3481847E-2,-2.2679865E-2],"categories":[],"categories_nodes":[],"categories_segments":[],"categories_sizes":[],"default_left":[0,0,0],"id":79,"left_children":[1,-1,-1],"loss_changes":[9.479279E-2,0E0,0E0],"parents":[2147483647,0,0],"right_children":[2,-1,-1],"split_conditions":[2.085E-1,3.3481847E-2,-2.2679865E-2],"split_indices":[26,0,0],"split_type":[0,0,0],"sum_hessian":[2.9587555E0,1.0484864E0,1.910269E0],"tree_param":{"num_deleted":"0","num_feature":"30","num_nodes":"3","size_leaf_vector":"1"}},{"base_weights":[5.4033054E-3,2.3633415E-2,-2.958034E-2],"categories":[],"categories_nodes":[],"categories_segments":[],"categories_sizes":[],"default_left":[0,0,0],"id":80,"left_children":[1,-1,-1],"loss_changes":[8.559084E-2,0E0,0E0],"parents":[2147483647,0,0],"right_children":[2,-1,-1],"split_conditions":[3.444E1,2.3633415E-2,-2.958034E-2],"split_indices":[13,0,0],"split_type":[0,0,0],"sum_hessian":[2.9401138E0,1.8261147E0,1.1139991E0],"tree_param":{"num_deleted":"0","num_feature":"30","num_nodes":"3","size_leaf_vector":"1"}},{"base_weights":[2.8258485E-3,2.9537955E-2,-2.2726834E-2],"categories":[],"categories_nodes":[],"categories_segments":[],"categories_sizes":[],"default_left":[0,0,0],"id":81,"left_children":[1,-1,-1],"loss_changes":[8.300004E-2,0E0,0E0],"parents":[2147483647,0,0],"right_children":[2,-1,-1],"split_conditions":[8.875E-2,2.9537955E-2,-2.2726834E-2],"split_indices":[4,0,0],"split_type":[0,0,0],"sum_hessian":[2.9249609E0,1.1840141E0,1.7409467E0],"tree_param":{"num_deleted":"0","num_feature":"30","num_nodes":"3","size_leaf_vector":"1"}},{"base_weights":[4.0306007E-3,-3.0613575E-2,2.3282263E-2],"categories":[],"categories_nodes":[],"categories_segments":[],"categories_sizes":[],"default_left":[0,0,0],"id":82,"left_children":[1,-1,-1],"loss_changes":[8.690653E-2,0E0,0E0],"parents":[2147483647,0,0],"right_children":[2,-1,-1],"split_conditions":[7.175E-2,-3.0613575E-2,2.3282263E-2],"split_indices":[5,0,0],"split_type":[0,0,0],"sum_hessian":[2.913245E0,1.063924E0,1.8493209E0],"tree_param":{"num_deleted":"0","num_feature":"30","num_nodes":"3","size_leaf_vector":"1"}},{"base_weights":[1.3584188E-3,2.955367E-2,-2.501047E-2],"categories":[],"categories_nodes":[],"categories_segments":[],"categories_sizes":[],"default_left":[0,0,0],"id":83,"left_children":[1,-1,-1],"loss_changes":[9.073394E-2,0E0,0E0],"parents":[2147483647,0,0],"right_children":[2,-1,-1],"split_conditions":[1.017E2,2.955367E-2,-2.501047E-2],"split_indices":[22,0,0],"split_type":[0,0,0],"sum_hessian":[2.9040403E0,1.2672952E0,1.636745E0],"tree_param":{"num_deleted":"0","num_feature":"30","num_nodes":"3","size_leaf_vector":"1"}},{"base_weights":[2.2864472E-3,2.539293E-2,-2.7381022E-2],"categories":[],"categories_nodes":[],"categories_segments":[],"categories_sizes":[],"default_left":[0,0,0],"id":84,"left_children":[1,-1,-1],"loss_changes":[8.478864E-2,0E0,0E0],"parents":[2147483647,0,0],"right_children":[2,-1,-1],"split_conditions":[2.02E1,2.539293E-2,-2.7381022E-2],"split_indices":[1,0,0],"split_type":[0,0,0],"sum_hessian":[2.8841734E0,1.5677412E0,1.3164322E0],"tree_param":{"num_deleted":"0","num_feature":"30","num_nodes":"3","size_leaf_vector":"1"}},{"base_weights":[1.3304098E-3,3.1103153E-2,-2.1454109E-2],"categories":[],"categories_nodes":[],"categories_segments":[],"categories_sizes":[],"default_left":[0,0,0],"id":85,"left_children":[1,-1,-1],"loss_changes":[8.1469886E-2,0E0,0E0],"parents":[2147483647,0,0],"right_children":[2,-1,-1],"split_conditions":[2.085E-1,3.1103153E-2,-2.1454109E-2],"split_indices":[26,0,0],"split_type":[0,0,0],"sum_hessian":[2.8691473E0,1.0071961E0,1.8619512E0],"tree_param":{"num_deleted":"0","num_feature":"30","num_nodes":"3","size_leaf_vector":"1"}},{"base_weights":[3.60577E-3,-2.5835052E-2,2.5815412E-2],"categories":[],"categories_nodes":[],"categories_segments":[],"categories_sizes":[],"default_left":[0,0,0],"id":86,"left_children":[1,-1,-1],"loss_changes":[8.086369E-2,0E0,0E0],"parents":[2147483647,0,0],"right_children":[2,-1,-1],"split_conditions":[1.77E-2,-2.5835052E-2,2.5815412E-2],"split_indices":[15,0,0],"split_type":[0,0,0],"sum_hessian":[2.8529003E0,1.3717325E0,1.4811678E0],"tree_param":{"num_deleted":"0","num_feature":"30","num_nodes":"3","size_leaf_vector":"1"}},{"base_weights":[2.898503E-3,2.973001E-2,-2.276262E-2],"categories":[],"categories_nodes":[],"categories_segments":[],"categories_sizes":[],"default_left":[0,0,0],"id":87,"left_children":[1,-1,-1],"loss_changes":[8.230457E-2,0E0,0E0],"parents":[2147483647,0,0],"right_children":[2,-1,-1],"split_conditions":[8.875E-2,2.973001E-2,-2.276262E-2],"split_indices":[4,0,0],"split_type":[0,0,0],"sum_hessian":[2.8437855E0,1.1428816E0,1.7009039E0],"tree_param":{"num_deleted":"0","num_feature":"30","num_nodes":"3","size_leaf_vector":"1"}},{"base_weights":[4.1666166E-3,2.8148515E-2,-2.2498254E-2],"categories":[],"categories_nodes":[],"categories_segments":[],"categories_sizes":[],"default_left":[0,0,0],"id":88,"left_children":[1,-1,-1],"loss_changes":[7.689001E-2,0E0,0E0],"parents":[2147483647,0,0],"right_children":[2,-1,-1],"split_conditions":[2.472E1,2.8148515E-2,-2.2498254E-2],"split_indices":[13,0,0],"split_type":[0,0,0],"sum_hessian":[2.8322344E0,1.2096242E0,1.6226102E0],"tree_param":{"num_deleted":"0","num_feature":"30","num_nodes":"3","size_leaf_vector":"1"}},{"base_weights":[4.8471508E-3,2.8851276E-2,-2.1775724E-2],"categories":[],"categories_nodes":[],"categories_segments":[],"categories_sizes":[],"default_left":[0,0,0],"id":89,"left_children":[1,-1,-1],"loss_changes":[7.6248646E-2,0E0,0E0],"parents":[2147483647,0,0],"right_children":[2,-1,-1],"split_conditions":[2.675E-1,2.8851276E-2,-2.1775724E-2],"split_indices":[28,0,0],"split_type":[0,0,0],"sum_hessian":[2.8186324E0,1.1457149E0,1.6729176E0],"tree_param":{"num_deleted":"0","num_feature":"30","num_nodes":"3","size_leaf_vector":"1"}},{"base_weights":[5.7763895E-3,-2.9382914E-2,2.2883384E-2],"categories":[],"categories_nodes":[],"categories_segments":[],"categories_sizes":[],"default_left":[0,0,0],"id":90,"left_children":[1,-1,-1],"loss_changes":[7.992417E-2,0E0,0E0],"parents":[2147483647,0,0],"right_children":[2,-1,-1],"split_conditions":[7.175E-2,-2.9382914E-2,2.2883384E-2],"split_indices":[5,0,0],"split_type":[0,0,0],"sum_hessian":[2.8047407E0,1.0195267E0,1.785214E0],"tree_param":{"num_deleted":"0","num_feature":"30","num_nodes":"3","size_leaf_vector":"1"}},{"base_weights":[2.9240558E-3,2.2342475E-2,-2.8417049E-2],"categories":[],"categories_nodes":[],"categories_segments":[],"categories_sizes":[],"default_left":[0,0,0],"id":91,"left_children":[1,-1,-1],"loss_changes":[7.575675E-2,0E0,0E0],"parents":[2147483647,0,0],"right_children":[2,-1,-1],"split_conditions":[1.315E-2,2.2342475E-2,-2.8417049E-2],"split_indices":[17,0,0],"split_type":[0,0,0],"sum_hessian":[2.7960613E0,1.7287468E0,1.0673145E0],"tree_param":{"num_deleted":"0","num_feature":"30","num_nodes":"3","size_leaf_vector":"1"}},{"base_weights":[7.4252527E-4,2.7406726E-2,-2.3354065E-2],"categories":[],"categories_nodes":[],"categories_segments":[],"categories_sizes":[],"default_left":[0,0,0],"id":92,"left_children":[1,-1,-1],"loss_changes":[7.660732E-2,0E0,0E0],"parents":[2147483647,0,0],"right_children":[2,-1,-1],"split_conditions":[1.017E2,2.7406726E-2,-2.3354065E-2],"split_indices":[22,0,0],"split_type":[0,0,0],"sum_hessian":[2.7840927E0,1.2121398E0,1.5719527E0],"tree_param":{"num_deleted":"0","num_feature":"30","num_nodes":"3","size_leaf_vector":"1"}},{"base_weights":[1.6924724E-3,-2.4425365E-2,2.4047686E-2],"categories":[],"categories_nodes":[],"categories_segments":[],"categories_sizes":[],"default_left":[0,0,0],"id":93,"left_children":[1,-1,-1],"loss_changes":[6.997962E-2,0E0,0E0],"parents":[2147483647,0,0],"right_children":[2,-1,-1],"split_conditions":[1.77E-2,-2.4425365E-2,2.4047686E-2],"split_indices":[15,0,0],"split_type":[0,0,0],"sum_hessian":[2.7671502E0,1.3386968E0,1.4284533E0],"tree_param":{"num_deleted":"0","num_feature":"30","num_nodes":"3","size_leaf_vector":"1"}},{"base_weights":[1.2656583E-3,2.789217E-2,-2.170648E-2],"categories":[],"categories_nodes":[],"categories_segments":[],"categories_sizes":[],"default_left":[0,0,0],"id":94,"left_children":[1,-1,-1],"loss_changes":[7.217619E-2,0E0,0E0],"parents":[2147483647,0,0],"right_children":[2,-1,-1],"split_conditions":[8.875E-2,2.789217E-2,-2.170648E-2],"split_indices":[4,0,0],"split_type":[0,0,0],"sum_hessian":[2.759181E0,1.1020056E0,1.6571755E0],"tree_param":{"num_deleted":"0","num_feature":"30","num_nodes":"3","size_leaf_vector":"1"}},{"base_weights":[2.6842644E-3,2.20618E-2,-2.6578253E-2],"categories":[],"categories_nodes":[],"categories_segments":[],"categories_sizes":[],"default_left":[0,0,0],"id":95,"left_children":[1,-1,-1],"loss_changes":[6.93614E-2,0E0,0E0],"parents":[2147483647,0,0],"right_children":[2,-1,-1],"split_conditions":[2.962E-1,2.20618E-2,-2.6578253E-2],"split_indices":[28,0,0],"split_type":[0,0,0],"sum_hessian":[2.7489717E0,1.6363461E0,1.1126256E0],"tree_param":{"num_deleted":"0","num_feature":"30","num_nodes":"3","size_leaf_vector":"1"}},{"base_weights":[9.4727153E-4,2.2859128E-2,-2.517899E-2],"categories":[],"categories_nodes":[],"categories_segments":[],"categories_sizes":[],"default_left":[0,0,0],"id":96,"left_children":[1,-1,-1],"loss_changes":[6.809874E-2,0E0,0E0],"parents":[2147483647,0,0],"right_children":[2,-1,-1],"split_conditions":[2.02E1,2.2859128E-2,-2.517899E-2],"split_indices":[1,0,0],"split_type":[0,0,0],"sum_hessian":[2.7357E0,1.4969314E0,1.2387685E0],"tree_param":{"num_deleted":"0","num_feature":"30","num_nodes":"3","size_leaf_vector":"1"}},{"base_weights":[1.4283259E-4,2.0864816E-2,-2.7298346E-2],"categories":[],"categories_nodes":[],"categories_segments":[],"categories_sizes":[],"default_left":[0,0,0],"id":97,"left_children":[1,-1,-1],"loss_changes":[6.7239024E-2,0E0,0E0],"parents":[2147483647,0,0],"right_children":[2,-1,-1],"split_conditions":[1.315E-2,2.0864816E-2,-2.7298346E-2],"split_indices":[17,0,0],"split_type":[0,0,0],"sum_hessian":[2.723256E0,1.6792974E0,1.0439587E0],"tree_param":{"num_deleted":"0","num_feature":"30","num_nodes":"3","size_leaf_vector":"1"}},{"base_weights":[-1.6179484E-3,2.5735253E-2,-2.2617301E-2],"categories":[],"categories_nodes":[],"categories_segments":[],"categories_sizes":[],"default_left":[0,0,0],"id":98,"left_children":[1,-1,-1],"loss_changes":[6.847346E-2,0E0,0E0],"parents":[2147483647,0,0],"right_children":[2,-1,-1],"split_conditions":[1.017E2,2.5735253E-2,-2.2617301E-2],"split_indices":[22,0,0],"split_type":[0,0,0],"sum_hessian":[2.7126822E0,1.1795492E0,1.5331331E0],"tree_param":{"num_deleted":"0","num_feature":"30","num_nodes":"3","size_leaf_vector":"1"}},{"base_weights":[-4.407086E-4,-2.461962E-2,2.3619384E-2],"categories":[],"categories_nodes":[],"categories_segments":[],"categories_sizes":[],"default_left":[0,0,0],"id":99,"left_children":[1,-1,-1],"loss_changes":[6.829624E-2,0E0,0E0],"parents":[2147483647,0,0],"right_children":[2,-1,-1],"split_conditions":[1.77E-2,-2.461962E-2,2.3619384E-2],"split_indices":[15,0,0],"split_type":[0,0,0],"sum_hessian":[2.6974223E0,1.3067665E0,1.3906559E0],"tree_param":{"num_deleted":"0","num_feature":"30","num_nodes":"3","size_leaf_vector":"1"}}]},"name":"gbtree"},"learner_model_param":{"base_score":"[6.2857145E-1]","boost_from_average":"1","num_class":"0","num_feature":"30","num_target":"1"},"objective":{"name":"binary:logistic","reg_loss_param":{"scale_pos_weight":"1"}}},"version":[3,2,0]}